{"learner":{"attributes":{"scikit_learn":"{\"_estimator_type\": \"classifier\"}"},"feature_names":[],"feature_types":[],"gradient_booster":{"model":{"gbtree_model_param":{"num_parallel_tree":"1","num_trees":"300"},"iteration_indptr":[0,1,2,3,4,5,6,7,8,9,10,11,12,13,14,15,16,17,18,19,20,21,22,23,24,25,26,27,28,29,30,31,32,33,34,35,36,37,38,39,40,41,42,43,44,45,46,47,48,49,50,51,52,53,54,55,56,57,58,59,60,61,62,63,64,65,66,67,68,69,70,71,72,73,74,75,76,77,78,79,80,81,82,83,84,85,86,87,88,89,90,91,92,93,94,95,96,97,98,99,100,101,102,103,104,105,106,107,108,109,110,111,112,113,114,115,116,117,118,119,120,121,122,123,124,125,126,127,128,129,130,131,132,133,134,135,136,137,138,139,140,141,142,143,144,145,146,147,148,149,150,151,152,153,154,155,156,157,158,159,160,161,162,163,164,165,166,167,168,169,170,171,172,173,174,175,176,177,178,179,180,181,182,183,184,185,186,187,188,189,190,191,192,193,194,195,196,197,198,199,200,201,202,203,204,205,206,207,208,209,210,211,212,213,214,215,216,217,218,219,220,221,222,223,224,225,226,227,228,229,230,231,232,233,234,235,236,237,238,239,240,241,242,243,244,245,246,247,248,249,250,251,252,253,254,255,256,257,258,259,260,261,262,263,264,265,266,267,268,269,270,271,272,273,274,275,276,277,278,279,280,281,282,283,284,285,286,287,288,289,290,291,292,293,294,295,296,297,298,299,300],"tree_info":[0,0,0,0,0,0,0,0,0,0,0,0,0,0,0,0,0,0,0,0,0,0,0,0,0,0,0,0,0,0,0,0,0,0,0,0,0,0,0,0,0,0,0,0,0,0,0,0,0,0,0,0,0,0,0,0,0,0,0,0,0,0,0,0,0,0,0,0,0,0,0,0,0,0,0,0,0,0,0,0,0,0,0,0,0,0,0,0,0,0,0,0,0,0,0,0,0,0,0,0,0,0,0,0,0,0,0,0,0,0,0,0,0,0,0,0,0,0,0,0,0,0,0,0,0,0,0,0,0,0,0,0,0,0,0,0,0,0,0,0,0,0,0,0,0,0,0,0,0,0,0,0,0,0,0,0,0,0,0,0,0,0,0,0,0,0,0,0,0,0,0,0,0,0,0,0,0,0,0,0,0,0,0,0,0,0,0,0,0,0,0,0,0,0,0,0,0,0,0,0,0,0,0,0,0,0,0,0,0,0,0,0,0,0,0,0,0,0,0,0,0,0,0,0,0,0,0,0,0,0,0,0,0,0,0,0,0,0,0,0,0,0,0,0,0,0,0,0,0,0,0,0,0,0,0,0,0,0,0,0,0,0,0,0,0,0,0,0,0,0,0,0,0,0,0,0,0,0,0,0,0,0,0,0,0,0,0,0,0,0,0,0,0,0,0,0,0,0,0,0],"trees":[{"base_weights":[-4.7587394E-3,-1.6133443E-1,5.259522E0,-2.3971319E-1,2.0721184E-1,2.9882634E-1,1.0908194E-1,-3.032436E-1,3.021158E0,-6.0281456E-1,1.7753808E-2,1.9324397E-1,8.929268E-1,-6.759713E-1,2.372244E0,-1.7264631E-1,2.42661E0,-2.8773746E-2,9.581645E-2,5.5699106E-2,-3.7306853E-2,-6.6804388E-3,1.692135E-1,-1.5037044E-2,6.9138855E-2,-4.991773E-3,1.9228424E-1],"categories":[],"categories_nodes":[],"categories_segments":[],"categories_sizes":[],"default_left":[0,0,0,0,0,0,0,0,0,0,0,0,0,0,0,0,0,0,0,0,0,0,0,0,0,0,0],"id":0,"left_children":[1,3,5,7,-1,-1,-1,9,11,13,15,-1,17,19,21,23,25,-1,-1,-1,-1,-1,-1,-1,-1,-1,-1],"loss_changes":[2.6790814E2,1.07501434E2,7.679718E0,6.532655E1,0E0,0E0,0E0,2.9424723E1,7.381813E0,3.6045956E1,6.858827E1,0E0,5.6308675E0,2.032708E1,1.064617E1,2.8046152E1,3.9656174E1,0E0,0E0,0E0,0E0,0E0,0E0,0E0,0E0,0E0,0E0],"parents":[2147483647,0,0,1,1,2,2,3,3,7,7,8,8,9,9,10,10,12,12,13,13,14,14,15,15,16,16],"right_children":[2,4,6,8,-1,-1,-1,10,12,14,16,-1,18,20,22,24,26,-1,-1,-1,-1,-1,-1,-1,-1,-1,-1],"split_conditions":[5.5286684E0,1.9863441E0,1.0621552E0,2.0199819E0,2.0721184E-1,2.9882634E-1,1.0908194E-1,2.2525673E-1,5.2479416E-1,1.6294721E0,9.1168314E-1,1.9324397E-1,-1.1243652E0,-2.3717595E-2,-7.72556E-1,7.818524E-1,4.575882E-1,-2.8773746E-2,9.581645E-2,5.5699106E-2,-3.7306853E-2,-6.6804388E-3,1.692135E-1,-1.5037044E-2,6.9138855E-2,-4.991773E-3,1.9228424E-1],"split_indices":[17,40,36,41,0,0,0,42,2,0,29,0,38,19,6,32,19,0,0,0,0,0,0,0,0,0,0],"split_type":[0,0,0,0,0,0,0,0,0,0,0,0,0,0,0,0,0,0,0,0,0,0,0,0,0,0,0],"sum_hessian":[3.2299988E2,3.1461172E2,8.388154E0,3.0991434E2,4.697366E0,6.039471E0,2.348683E0,3.0488144E2,5.0328927E0,1.5724994E2,1.4763152E2,3.0197356E0,2.0131571E0,1.542302E2,3.0197356E0,1.3767757E2,9.953943E0,1.0065786E0,1.0065786E0,5.2565765E0,1.4897362E2,1.1184206E0,1.901315E0,1.2794731E2,9.730259E0,3.914472E0,6.039471E0],"tree_param":{"num_deleted":"0","num_feature":"43","num_nodes":"27","size_leaf_vector":"1"}},{"base_weights":[-3.598617E-3,-1.3467123E-1,3.9703221E0,-2.2694896E-1,2.770477E0,6.456413E-2,2.1407405E-1,-3.0297157E-1,3.2524981E0,1.9582379E-1,7.660324E-1,3.348016E-1,-4.466257E-1,8.249924E-2,1.9411884E-1,-3.1458165E-2,1.4217212E0,-3.8246742E-1,3.021367E0,2.6270745E0,-4.9258822E-1,9.077466E-2,1.5853783E-2,-2.8378952E-2,1.9878449E-2,-3.786607E-2,1.927358E-1,3.669877E-2,1.6183938E-1,-2.6086396E-2,1.2143858E-1],"categories":[],"categories_nodes":[],"categories_segments":[],"categories_sizes":[],"default_left":[0,0,0,0,0,0,0,0,0,0,0,0,0,0,0,0,0,0,0,0,0,0,0,0,0,0,0,0,0,0,0],"id":1,"left_children":[1,3,5,7,9,-1,-1,11,13,-1,15,17,19,-1,-1,-1,21,23,25,27,29,-1,-1,-1,-1,-1,-1,-1,-1,-1,-1],"loss_changes":[1.6817458E2,8.441339E1,3.0653229E0,8.1355606E1,1.9275482E1,0E0,0E0,2.747539E1,2.3777008E-1,0E0,5.2587333E0,1.0791401E2,3.5744583E1,0E0,0E0,0E0,9.694767E-1,6.667757E0,4.0035522E1,1.9534473E0,2.1791752E1,0E0,0E0,0E0,0E0,0E0,0E0,0E0,0E0,0E0,0E0],"parents":[2147483647,0,0,1,1,2,2,3,3,4,4,7,7,8,8,10,10,11,11,12,12,16,16,17,17,18,18,19,19,20,20],"right_children":[2,4,6,8,10,-1,-1,12,14,-1,16,18,20,-1,-1,-1,22,24,26,28,30,-1,-1,-1,-1,-1,-1,-1,-1,-1,-1],"split_conditions":[5.48067E0,1.9058607E0,-1.915855E0,1.9863441E0,3.92191E-1,6.456413E-2,2.1407405E-1,3.1493875E-1,9.604039E0,1.9582379E-1,-1.183261E0,-6.634539E-1,-4.582513E-2,8.249924E-2,1.9411884E-1,-3.1458165E-2,-4.7897598E-1,9.5186436E-1,-1.3712727E0,5.4116565E-1,1.5047566E0,9.077466E-2,1.5853783E-2,-2.8378952E-2,1.9878449E-2,-3.786607E-2,1.927358E-1,3.669877E-2,1.6183938E-1,-2.6086396E-2,1.2143858E-1],"split_indices":[17,41,3,40,2,0,0,19,27,0,38,36,36,0,0,0,34,0,35,9,29,0,0,0,0,0,0,0,0,0,0],"split_type":[0,0,0,0,0,0,0,0,0,0,0,0,0,0,0,0,0,0,0,0,0,0,0,0,0,0,0,0,0,0,0],"sum_hessian":[3.2084464E2,3.115353E2,9.309319E0,3.0283798E2,8.697321E0,1.5046213E0,7.804697E0,2.9725613E2,5.581837E0,4.926693E0,3.770628E0,5.440165E1,2.4285449E2,2.5962033E0,2.9856339E0,1.2184422E0,2.5521858E0,4.3614838E1,1.0786811E1,2.7506454E0,2.4010385E2,1.4070932E0,1.1450927E0,3.546981E1,8.145027E0,1.9655529E0,8.821258E0,1.2069595E0,1.5436859E0,2.3854584E2,1.5580157E0],"tree_param":{"num_deleted":"0","num_feature":"43","num_nodes":"31","size_leaf_vector":"1"}},{"base_weights":[3.8921725E-2,-9.299081E-2,1.7589839E-1,-1.5106606E-1,1.909474E-1,-2.1847138E-1,2.6704452E0,1.8929007E0,-2.6729864E-1,3.415627E-2,1.4807458E-1,9.7908765E-1,1.4815508E-1,3.6109534E-1,-4.1682675E-1,-3.2440852E-2,8.429396E-2,-9.8739145E-3,1.2353919E-1,1.605014E-1,-2.2342823E-2],"categories":[],"categories_nodes":[],"categories_segments":[],"categories_sizes":[],"default_left":[0,0,0,0,0,0,0,0,0,0,0,0,0,0,0,0,0,0,0,0,0],"id":2,"left_children":[1,3,-1,5,-1,7,9,11,13,-1,-1,15,-1,17,19,-1,-1,-1,-1,-1,-1],"loss_changes":[1.4878822E2,7.160705E1,0E0,5.9357964E1,0E0,3.1717525E1,2.191311E0,3.9122353E0,2.8037281E1,0E0,0E0,7.136166E0,0E0,6.8344025E1,2.7595814E1,0E0,0E0,0E0,0E0,0E0,0E0],"parents":[2147483647,0,0,1,1,3,3,5,5,6,6,7,7,8,8,11,11,13,13,14,14],"right_children":[2,4,-1,6,-1,8,10,12,14,-1,-1,16,-1,18,20,-1,-1,-1,-1,-1,-1],"split_conditions":[5.48067E0,9.604039E0,1.7589839E-1,2.0199819E0,1.909474E-1,-2.2288058E0,2.1641202E-1,-5.254277E-2,3.1493875E-1,3.415627E-2,1.4807458E-1,-4.103774E-1,1.4815508E-1,4.4128996E-1,-2.1157522E0,-3.2440852E-2,8.429396E-2,-9.8739145E-3,1.2353919E-1,1.605014E-1,-2.2342823E-2],"split_indices":[17,27,0,41,0,40,0,5,19,0,0,41,0,20,36,0,0,0,0,0,0],"split_type":[0,0,0,0,0,0,0,0,0,0,0,0,0,0,0,0,0,0,0,0,0],"sum_hessian":[3.224941E2,3.1165073E2,1.08433695E1,3.0803906E2,3.6116557E0,3.0175284E2,6.2862425E0,5.9668994E0,2.9578592E2,1.2306012E0,5.055641E0,4.251517E0,1.7153827E0,5.658245E1,2.3920348E2,1.3119098E0,2.939607E0,4.545414E1,1.1128313E1,1.0947074E0,2.3810876E2],"tree_param":{"num_deleted":"0","num_feature":"43","num_nodes":"21","size_leaf_vector":"1"}},{"base_weights":[-3.0483969E-2,-1.5750605E-1,2.9313936E0,-2.4859431E-1,2.6690621E0,3.3139346E0,6.8266936E-2,-3.086114E-1,2.2091107E0,2.9957454E0,1.0567727E0,1.7459936E-1,4.2880427E-2,-3.4118807E-1,2.30379E0,2.85513E0,4.4891015E-1,1.6374798E-1,3.7008315E-2,7.048851E-2,1.2750128E-2,2.453412E-1,-4.767476E-1,1.660626E-2,1.497287E-1,3.64926E-2,1.6444665E-1,-7.246735E-3,4.1447364E-2,-1.598782E-2,1.1888363E-1,-2.922996E-2,2.3952363E-2],"categories":[],"categories_nodes":[],"categories_segments":[],"categories_sizes":[],"default_left":[0,0,0,0,0,0,0,0,0,0,0,0,0,0,0,0,0,0,0,0,0,0,0,0,0,0,0,0,0,0,0,0,0],"id":3,"left_children":[1,3,5,7,9,11,-1,13,15,17,19,-1,-1,21,23,25,27,-1,-1,-1,-1,29,31,-1,-1,-1,-1,-1,-1,-1,-1,-1,-1],"loss_changes":[1.2242323E2,8.093948E1,3.4920502E0,4.537139E1,2.0060425E0,1.4023895E0,0E0,2.6030003E1,7.070221E0,2.3748703E0,5.460043E-1,0E0,0E0,2.3480457E1,4.1570053E0,2.3810768E0,8.329585E-1,0E0,0E0,0E0,0E0,6.802736E1,2.4919209E1,0E0,0E0,0E0,0E0,0E0,0E0,0E0,0E0,0E0,0E0],"parents":[2147483647,0,0,1,1,2,2,3,3,4,4,5,5,7,7,8,8,9,9,10,10,13,13,14,14,15,15,16,16,21,21,22,22],"right_children":[2,4,6,8,10,12,-1,14,16,18,20,-1,-1,22,24,26,28,-1,-1,-1,-1,30,32,-1,-1,-1,-1,-1,-1,-1,-1,-1,-1],"split_conditions":[5.48067E0,1.8815764E0,1.0621552E0,2.0199819E0,3.6679548E-1,6.1496156E-1,6.8266936E-2,1.6873167E0,1.0962546E0,6.810152E-1,-6.1854833E-1,1.7459936E-1,4.2880427E-2,3.0459395E-1,-1.0376954E-1,5.2216184E-1,-1.1563087E0,1.6374798E-1,3.7008315E-2,7.048851E-2,1.2750128E-2,-6.634539E-1,8.6568844E-1,1.660626E-2,1.497287E-1,3.64926E-2,1.6444665E-1,-7.246735E-3,4.1447364E-2,-1.598782E-2,1.1888363E-1,-2.922996E-2,2.3952363E-2],"split_indices":[17,40,36,41,37,25,0,0,1,9,7,0,0,19,40,0,38,0,0,0,0,36,21,0,0,0,0,0,0,0,0,0,0],"split_type":[0,0,0,0,0,0,0,0,0,0,0,0,0,0,0,0,0,0,0,0,0,0,0,0,0,0,0,0,0,0,0,0,0],"sum_hessian":[3.2317273E2,3.1079108E2,1.23816595E1,3.0197186E2,8.819217E0,9.053945E0,3.327715E0,2.956271E2,6.344772E0,6.619832E0,2.199385E0,8.048873E0,1.0050719E0,2.9284473E2,2.7823825E0,4.1862926E0,2.1584792E0,5.4884853E0,1.1313472E0,1.0005482E0,1.1988366E0,5.4824436E1,2.3802028E2,1.1060998E0,1.6762828E0,1.164356E0,3.021937E0,1.0837089E0,1.0747702E0,4.4010963E1,1.0813476E1,2.1423448E2,2.3785788E1],"tree_param":{"num_deleted":"0","num_feature":"43","num_nodes":"33","size_leaf_vector":"1"}},{"base_weights":[2.2251084E-2,-1.11747615E-1,2.9666834E0,-2.0219699E-1,2.4738832E0,4.9235966E-2,1.5487406E-1,-2.7326456E-1,2.1350958E0,1.5450696E0,1.5511793E-1,-3.9440665E-1,5.5275846E-1,2.6018825E0,4.5758602E-1,1.264066E-2,9.021786E-2,2.594392E-1,-5.580722E-1,-2.1323937E-1,2.5507383E0,3.7017923E-2,1.4210086E-1,-3.0710954E-2,6.666378E-2,-2.3016568E-2,1.4192441E-1,4.6296783E-2,-3.1063605E-2,-2.880812E-2,1.05551355E-1,2.1940577E-1,6.211192E-2],"categories":[],"categories_nodes":[],"categories_segments":[],"categories_sizes":[],"default_left":[0,0,0,0,0,0,0,0,0,0,0,0,0,0,0,0,0,0,0,0,0,0,0,0,0,0,0,0,0,0,0,0,0],"id":4,"left_children":[1,3,5,7,9,-1,-1,11,13,15,-1,17,19,21,23,-1,-1,25,27,29,31,-1,-1,-1,-1,-1,-1,-1,-1,-1,-1,-1,-1],"loss_changes":[1.2752336E2,7.283654E1,5.969391E-1,5.037753E1,1.3532486E0,0E0,0E0,2.9418724E1,5.8249664E0,1.6352005E0,0E0,2.744086E1,5.8302002E1,9.3364716E-1,3.7883139E0,0E0,0E0,9.736869E1,1.9738834E1,2.5006575E1,1.9879837E1,0E0,0E0,0E0,0E0,0E0,0E0,0E0,0E0,0E0,0E0,0E0,0E0],"parents":[2147483647,0,0,1,1,2,2,3,3,4,4,7,7,8,8,9,9,11,11,12,12,13,13,14,14,17,17,18,18,19,19,20,20],"right_children":[2,4,6,8,10,-1,-1,12,14,16,-1,18,20,22,24,-1,-1,26,28,30,32,-1,-1,-1,-1,-1,-1,-1,-1,-1,-1,-1,-1],"split_conditions":[5.5513344E0,1.8815764E0,5.6259985E0,1.9629214E0,9.604039E0,4.9235966E-2,1.5487406E-1,9.1168314E-1,5.2479416E-1,3.758769E-1,1.5511793E-1,-1.5010683E-2,-6.1537296E-1,-7.605495E-1,-1.1243652E0,1.264066E-2,9.021786E-2,4.4128996E-1,-2.124038E0,1.4881825E0,6.3319E-1,3.7017923E-2,1.4210086E-1,-3.0710954E-2,6.666378E-2,-2.3016568E-2,1.4192441E-1,4.6296783E-2,-3.1063605E-2,-2.880812E-2,1.05551355E-1,2.1940577E-1,6.211192E-2],"split_indices":[17,40,17,41,27,0,0,29,2,25,0,36,41,6,38,0,0,20,40,29,37,0,0,0,0,0,0,0,0,0,0,0,0],"split_type":[0,0,0,0,0,0,0,0,0,0,0,0,0,0,0,0,0,0,0,0,0,0,0,0,0,0,0,0,0,0,0,0,0],"sum_hessian":[3.213718E2,3.0830322E2,1.3068579E1,2.9877347E2,9.52976E0,1.3370447E0,1.1731534E1,2.908141E2,7.9593873E0,5.2416506E0,4.2881093E0,2.5407475E2,3.6739326E1,5.7956433E0,2.163744E0,1.2060218E0,4.035629E0,5.074855E1,2.033262E2,2.7203249E1,9.5360775E0,1.1287404E0,4.666903E0,1.1071858E0,1.0565581E0,4.0317974E1,1.0430578E1,7.7477984E0,1.955784E2,2.41798E1,3.0234492E0,2.98751E0,6.5485673E0],"tree_param":{"num_deleted":"0","num_feature":"43","num_nodes":"33","size_leaf_vector":"1"}},{"base_weights":[2.3717087E-2,-8.4193245E-2,2.4793153E0,-1.7248565E-1,1.8527821E0,2.6293404E0,1.5090472E-2,-2.6229665E-1,1.3877351E0,2.4634802E0,5.8799106E-1,5.1593043E-2,2.9378715E0,-3.7814316E-1,6.4027816E-1,1.4202243E-1,9.139905E-1,1.3062905E-1,3.7853245E-2,-4.0848836E-2,1.8856013E0,3.8266577E-2,1.5508348E-1,-6.710952E-1,-8.391582E-2,3.0936715E-1,2.3303125E0,-8.7349035E-2,1.8317614E0,1.2141379E-1,1.7700404E-2,-3.6416315E-2,1.0605907E-1,-1.3064779E-2,8.4358536E-2,-3.6748182E-3,9.090349E-2,1.5154086E-1,5.0181746E-2,-3.5348322E-2,3.7125606E-2,1.2691297E-1,1.622954E-2],"categories":[],"categories_nodes":[],"categories_segments":[],"categories_sizes":[],"default_left":[0,0,0,0,0,0,0,0,0,0,0,0,0,0,0,0,0,0,0,0,0,0,0,0,0,0,0,0,0,0,0,0,0,0,0,0,0,0,0,0,0,0,0],"id":5,"left_children":[1,3,5,7,9,11,-1,13,15,17,19,-1,21,23,25,-1,27,-1,-1,-1,29,-1,-1,31,33,35,37,39,41,-1,-1,-1,-1,-1,-1,-1,-1,-1,-1,-1,-1,-1,-1],"loss_changes":[8.5480156E1,5.3202282E1,3.6423874E0,4.1932537E1,9.029713E0,3.1658707E0,0E0,2.9659855E1,8.625729E0,2.6995468E-1,1.1988293E1,0E0,1.1837692E0,2.1489952E1,1.7384768E1,0E0,1.2814979E1,0E0,0E0,0E0,1.8678236E0,0E0,0E0,2.1538872E1,3.997969E1,1.6438236E1,1.7424335E0,4.401896E0,6.8752594E0,0E0,0E0,0E0,0E0,0E0,0E0,0E0,0E0,0E0,0E0,0E0,0E0,0E0,0E0],"parents":[2147483647,0,0,1,1,2,2,3,3,4,4,5,5,7,7,8,8,9,9,10,10,12,12,13,13,14,14,16,16,20,20,23,23,24,24,25,25,26,26,27,27,28,28],"right_children":[2,4,6,8,10,12,-1,14,16,18,20,-1,22,24,26,-1,28,-1,-1,-1,30,-1,-1,32,34,36,38,40,42,-1,-1,-1,-1,-1,-1,-1,-1,-1,-1,-1,-1,-1,-1],"split_conditions":[5.6259985E0,1.6510878E0,1.092344E0,1.5489209E0,3.6679548E-1,5.743328E0,1.5090472E-2,8.651151E-1,-4.6880193E-2,4.88778E-1,2.1517594E-1,5.1593043E-2,4.929773E-2,2.140741E-1,1.681845E0,1.4202243E-1,-1.4378103E0,1.3062905E-1,3.7853245E-2,-4.0848836E-2,3.307282E-1,3.8266577E-2,1.5508348E-1,1.5047566E0,8.862697E-1,7.6831794E-1,-4.2436698E-1,1.0592899E0,5.2479416E-1,1.2141379E-1,1.7700404E-2,-3.6416315E-2,1.0605907E-1,-1.3064779E-2,8.4358536E-2,-3.6748182E-3,9.090349E-2,1.5154086E-1,5.0181746E-2,-3.5348322E-2,3.7125606E-2,1.2691297E-1,1.622954E-2],"split_indices":[17,40,0,37,37,17,0,21,41,25,41,0,36,42,41,0,40,0,0,0,19,0,0,29,29,29,6,0,2,0,0,0,0,0,0,0,0,0,0,0,0,0,0],"split_type":[0,0,0,0,0,0,0,0,0,0,0,0,0,0,0,0,0,0,0,0,0,0,0,0,0,0,0,0,0,0,0,0,0,0,0,0,0,0,0,0,0,0,0],"sum_hessian":[3.2079785E2,3.08219E2,1.2578854E1,2.956533E2,1.25657E1,1.15739355E1,1.0049177E0,2.8034753E2,1.5305761E1,7.8349133E0,4.730787E0,2.576749E0,8.997187E0,2.4897266E2,3.1374887E1,2.5353878E0,1.2770373E1,6.716973E0,1.1179405E0,2.4492729E0,2.281514E0,1.0284692E0,7.9687176E0,1.2411487E2,1.2485778E2,2.7226881E1,4.148007E0,6.5398517E0,6.230521E0,1.2523303E0,1.0291835E0,1.223464E2,1.7684711E0,1.1426614E2,1.05916395E1,2.2474749E1,4.7521324E0,1.8739941E0,2.2740128E0,3.8290071E0,2.7108448E0,3.7762516E0,2.45427E0],"tree_param":{"num_deleted":"0","num_feature":"43","num_nodes":"43","size_leaf_vector":"1"}},{"base_weights":[1.3014955E-2,-9.29936E-2,2.2788455E0,-1.8303998E-1,1.7547859E0,2.3840935E0,3.192384E-2,-2.4334346E-1,1.9879969E0,1.12272955E-1,6.9155985E-1,1.24426804E-1,3.437391E-2,-2.7008474E-1,1.4281291E-1,2.2663183E0,2.254139E-2,-6.223346E-1,1.15906015E-1,-5.6858426E-1,3.9262865E-2,1.2445567E-1,3.318691E-2,-3.876151E-2,-3.8826335E-3,5.518809E-2,-3.3308182E-2,-5.315764E-3,7.5622596E-2],"categories":[],"categories_nodes":[],"categories_segments":[],"categories_sizes":[],"default_left":[0,0,0,0,0,0,0,0,0,0,0,0,0,0,0,0,0,0,0,0,0,0,0,0,0,0,0,0,0],"id":6,"left_children":[1,3,5,7,9,11,-1,13,15,-1,17,-1,-1,19,-1,21,-1,23,-1,25,27,-1,-1,-1,-1,-1,-1,-1,-1],"loss_changes":[7.642359E1,5.09137E1,9.3286896E-1,3.8561314E1,5.8676224E0,5.9226227E-1,0E0,2.4301E1,2.387766E0,0E0,1.4129662E1,0E0,0E0,2.6095451E1,0E0,6.684189E-1,0E0,2.7893293E-1,0E0,2.4195637E1,3.009906E1,0E0,0E0,0E0,0E0,0E0,0E0,0E0,0E0],"parents":[2147483647,0,0,1,1,2,2,3,3,4,4,5,5,7,7,8,8,10,10,13,13,15,15,17,17,19,19,20,20],"right_children":[2,4,6,8,10,12,-1,14,16,-1,18,-1,-1,20,-1,22,-1,24,-1,26,28,-1,-1,-1,-1,-1,-1,-1,-1],"split_conditions":[5.48067E0,1.6510878E0,1.6328925E0,2.0199819E0,3.3141497E-1,1.9202908E0,3.192384E-2,1.585693E0,7.9964185E-1,1.12272955E-1,2.1517594E-1,1.24426804E-1,3.437391E-2,2.2525673E-1,1.4281291E-1,4.788223E-1,2.254139E-2,4.0244186E-1,1.15906015E-1,-2.3717595E-2,9.1168314E-1,1.2445567E-1,3.318691E-2,-3.876151E-2,-3.8826335E-3,5.518809E-2,-3.3308182E-2,-5.315764E-3,7.5622596E-2],"split_indices":[17,40,36,41,37,7,0,29,34,0,41,0,0,42,0,19,0,25,0,19,29,0,0,0,0,0,0,0,0],"split_type":[0,0,0,0,0,0,0,0,0,0,0,0,0,0,0,0,0,0,0,0,0,0,0,0,0,0,0,0,0],"sum_hessian":[3.162876E2,3.0306732E2,1.322027E1,2.8984357E2,1.3223777E1,1.1997132E1,1.2231386E0,2.8287427E2,6.9693003E0,8.287301E0,4.9364758E0,1.0861726E1,1.1354058E0,2.8135974E2,1.5145178E0,5.4992537E0,1.4700465E0,3.0722125E0,1.8642634E0,1.4276407E2,1.3859567E2,4.3423743E0,1.1568794E0,2.068344E0,1.0038683E0,7.302367E0,1.354617E2,1.2697595E2,1.1619724E1],"tree_param":{"num_deleted":"0","num_feature":"43","num_nodes":"29","size_leaf_vector":"1"}},{"base_weights":[6.2726582E-3,-9.676608E-2,1.9944043E0,-1.8032254E-1,1.999467E0,3.4105614E-2,2.152931E0,-2.4939673E-1,1.6091427E0,1.0901808E-1,1.18798595E-2,2.3293095E0,3.7224304E-2,6.8891597E-1,-3.2836047E-1,1.851721E0,-1.0145775E-2,5.0477564E-2,1.2485591E-1,6.2174853E-2,1.9013442E0,1.9091427E-1,-4.6302238E-1,1.0597189E-1,6.63741E-1,7.363457E-2,-1.0770786E-2,1.8387733E-1,2.660901E-2,-2.5224153E-2,9.496751E-2,1.1877531E-1,-2.499292E-2,-1.0355185E-2,6.2060427E-2],"categories":[],"categories_nodes":[],"categories_segments":[],"categories_sizes":[],"default_left":[0,0,0,0,0,0,0,0,0,0,0,0,0,0,0,0,0,0,0,0,0,0,0,0,0,0,0,0,0,0,0,0,0,0,0],"id":7,"left_children":[1,3,5,7,9,-1,11,13,15,-1,-1,17,-1,19,21,23,-1,-1,-1,25,27,29,31,-1,33,-1,-1,-1,-1,-1,-1,-1,-1,-1,-1],"loss_changes":[6.564861E1,5.3735565E1,1.8163567E0,3.6737537E1,3.2312355E0,0E0,1.6504517E0,2.1261763E1,5.2372494E0,0E0,0E0,5.6568146E-2,0E0,1.6873081E1,1.8447475E1,1.7268333E0,0E0,0E0,0E0,6.4936666E0,1.6491575E1,6.603111E1,2.3016945E1,0E0,1.900476E0,0E0,0E0,0E0,0E0,0E0,0E0,0E0,0E0,0E0,0E0],"parents":[2147483647,0,0,1,1,2,2,3,3,4,4,6,6,7,7,8,8,11,11,13,13,14,14,15,15,19,19,20,20,21,21,22,22,24,24],"right_children":[2,4,6,8,10,-1,12,14,16,-1,-1,18,-1,20,22,24,-1,-1,-1,26,28,30,32,-1,34,-1,-1,-1,-1,-1,-1,-1,-1,-1,-1],"split_conditions":[4.4513702E0,1.8815764E0,-1.7704688E0,1.9629214E0,1.4846696E0,3.4105614E-2,5.834156E-1,-1.8097353E0,7.9000044E-1,1.0901808E-1,1.18798595E-2,1.377218E-1,3.7224304E-2,-5.254277E-2,3.1493875E-1,1.0962546E0,-1.0145775E-2,5.0477564E-2,1.2485591E-1,-1.1548457E0,7.7628493E-1,-1.7352608E0,-2.0367064E0,1.0597189E-1,-1.1593034E0,7.363457E-2,-1.0770786E-2,1.8387733E-1,2.660901E-2,-2.5224153E-2,9.496751E-2,1.1877531E-1,-2.499292E-2,-1.0355185E-2,6.2060427E-2],"split_indices":[17,40,3,41,6,0,25,40,2,0,0,36,0,5,19,1,0,0,0,2,6,36,36,0,38,0,0,0,0,0,0,0,0,0,0],"split_type":[0,0,0,0,0,0,0,0,0,0,0,0,0,0,0,0,0,0,0,0,0,0,0,0,0,0,0,0,0,0,0,0,0,0,0],"sum_hessian":[3.1852243E2,3.0373224E2,1.4790178E1,2.929684E2,1.0763828E1,2.1656494E0,1.2624528E1,2.8290863E2,1.0059775E1,9.546177E0,1.2176516E0,1.0638466E1,1.9860629E0,2.1360538E1,2.615481E2,8.852775E0,1.2070005E0,1.9915652E0,8.6469E0,1.4774454E1,6.5860844E0,5.377327E1,2.0777483E2,6.584794E0,2.267981E0,1.7215424E0,1.3052912E1,2.1329937E0,4.4530907E0,3.871822E1,1.5055053E1,1.8484366E0,2.0592639E2,1.1600049E0,1.1079761E0],"tree_param":{"num_deleted":"0","num_feature":"43","num_nodes":"35","size_leaf_vector":"1"}},{"base_weights":[1.9574642E-2,-8.4456325E-2,1.8772221E0,-1.578534E-1,1.6144917E0,2.1211312E0,4.812505E-2,-2.3375517E-1,1.327382E0,1.727463E0,1.351388E-2,1.1434688E-1,3.778755E-2,-2.6664516E-1,2.0362973E0,8.7156427E-1,1.470587E-1,1.3628729E-2,9.22515E-2,-5.751567E-1,2.8143302E-3,1.3841002E-1,2.404774E-2,2.575174E-1,1.5516639E0,-3.3356618E-2,3.0441958E-2,-6.4163334E-3,5.8175158E-2,-1.1799246E-2,7.946106E-2,9.7158656E-2,-5.7331314E-3],"categories":[],"categories_nodes":[],"categories_segments":[],"categories_sizes":[],"default_left":[0,0,0,0,0,0,0,0,0,0,0,0,0,0,0,0,0,0,0,0,0,0,0,0,0,0,0,0,0,0,0,0,0],"id":8,"left_children":[1,3,5,7,9,11,-1,13,15,17,-1,-1,-1,19,21,23,-1,-1,-1,25,27,-1,-1,29,31,-1,-1,-1,-1,-1,-1,-1,-1],"loss_changes":[6.1001335E1,3.7551453E1,1.6930847E0,3.273432E1,1.4275856E0,1.0753975E0,0E0,2.1036705E1,7.8332615E0,1.4338036E0,0E0,0E0,0E0,2.2567703E1,3.2629604E0,4.7963543E0,0E0,0E0,0E0,1.4188377E1,2.235598E1,0E0,0E0,5.4601054E0,3.944313E0,0E0,0E0,0E0,0E0,0E0,0E0,0E0,0E0],"parents":[2147483647,0,0,1,1,2,2,3,3,4,4,5,5,7,7,8,8,9,9,13,13,14,14,15,15,19,19,20,20,23,23,24,24],"right_children":[2,4,6,8,10,12,-1,14,16,18,-1,-1,-1,20,22,24,-1,-1,-1,26,28,-1,-1,30,32,-1,-1,-1,-1,-1,-1,-1,-1],"split_conditions":[5.48067E0,1.8815764E0,1.0621552E0,1.6088207E0,1.0620203E0,1.010851E0,4.812505E-2,1.6873167E0,5.588532E-1,-1.9078257E0,1.351388E-2,1.1434688E-1,3.778755E-2,1.2485259E-1,9.8267895E-1,-1.3452656E0,1.470587E-1,1.3628729E-2,9.22515E-2,8.9148927E-1,8.796401E-1,1.3841002E-1,2.404774E-2,7.130712E-1,5.430523E-1,-3.3356618E-2,3.0441958E-2,-6.4163334E-3,5.8175158E-2,-1.1799246E-2,7.946106E-2,9.7158656E-2,-5.7331314E-3],"split_indices":[17,40,36,39,33,29,0,0,9,33,0,0,0,35,7,40,0,0,0,21,29,0,0,29,9,0,0,0,0,0,0,0,0],"split_type":[0,0,0,0,0,0,0,0,0,0,0,0,0,0,0,0,0,0,0,0,0,0,0,0,0,0,0,0,0,0,0,0,0],"sum_hessian":[3.1383514E2,2.980959E2,1.5739269E1,2.8662054E2,1.1475344E1,1.1384678E1,4.3545914E0,2.7348682E2,1.3133712E1,1.0322688E1,1.1526561E0,9.550016E0,1.8346614E0,2.704509E2,3.0359292E0,1.1441981E1,1.6917305E0,1.0199007E0,9.302787E0,1.25559685E2,1.448912E2,1.5341827E0,1.5017467E0,6.737494E0,4.7044873E0,1.1691406E2,8.645629E0,1.3098163E2,1.3909584E1,5.516125E0,1.2213688E0,3.6749125E0,1.0295751E0],"tree_param":{"num_deleted":"0","num_feature":"43","num_nodes":"33","size_leaf_vector":"1"}},{"base_weights":[2.027959E-2,-6.956226E-2,1.874546E0,-1.62727E-1,1.5926696E0,1.9762733E0,3.168383E-2,-2.4200334E-1,1.1519122E0,1.9229441E0,4.3919355E-1,2.0819447E0,2.7300885E-2,-2.7610812E-1,2.118858E0,5.438759E-1,1.3162063E-1,1.02339365E-1,3.2807466E-2,6.371072E-2,-2.8056067E-1,3.2311168E-2,1.0842226E-1,-5.426199E-1,-1.9580467E-2,1.4220688E-1,1.31357405E-2,-4.045995E-1,1.3792055E0,1.6269377E-2,-3.3852547E-2,4.6717025E-2,-3.196354E-2,-7.903321E-3,6.329821E-2,1.5761076E-2,-3.6455855E-2,9.0296485E-2,-1.28198685E-2],"categories":[],"categories_nodes":[],"categories_segments":[],"categories_sizes":[],"default_left":[0,0,0,0,0,0,0,0,0,0,0,0,0,0,0,0,0,0,0,0,0,0,0,0,0,0,0,0,0,0,0,0,0,0,0,0,0,0,0],"id":9,"left_children":[1,3,5,7,9,11,-1,13,15,17,19,21,-1,23,25,27,-1,-1,-1,-1,29,-1,-1,31,33,-1,-1,35,37,-1,-1,-1,-1,-1,-1,-1,-1,-1,-1],"loss_changes":[5.2031906E1,4.64261E1,5.6960297E-1,2.9794111E1,5.2184143E0,8.080101E-1,0E0,2.2157272E1,1.3223743E1,5.515747E-1,3.2655082E0,4.2655945E-2,0E0,1.8106256E1,4.5442066E0,1.0700112E1,0E0,0E0,0E0,0E0,1.0415307E0,0E0,0E0,1.9144672E1,2.4423325E1,0E0,0E0,1.8107303E0,5.37193E0,0E0,0E0,0E0,0E0,0E0,0E0,0E0,0E0,0E0,0E0],"parents":[2147483647,0,0,1,1,2,2,3,3,4,4,5,5,7,7,8,8,9,9,10,10,11,11,13,13,14,14,15,15,20,20,23,23,24,24,27,27,28,28],"right_children":[2,4,6,8,10,12,-1,14,16,18,20,22,-1,24,26,28,-1,-1,-1,-1,30,-1,-1,32,34,-1,-1,36,38,-1,-1,-1,-1,-1,-1,-1,-1,-1,-1],"split_conditions":[5.582E0,1.6510878E0,5.776046E-1,1.5822202E0,1.2205261E0,1.9815028E0,3.168383E-2,1.6873167E0,5.0368625E-1,5.2891296E-1,-1.0472623E0,-1.6448156E0,2.7300885E-2,2.2525673E-1,-5.6025124E-1,-1.4378103E0,1.3162063E-1,1.02339365E-1,3.2807466E-2,6.371072E-2,6.31087E-1,3.2311168E-2,1.0842226E-1,-2.3717595E-2,9.1168314E-1,1.4220688E-1,1.31357405E-2,-1.2820861E0,6.455175E-1,1.6269377E-2,-3.3852547E-2,4.6717025E-2,-3.196354E-2,-7.903321E-3,6.329821E-2,1.5761076E-2,-3.6455855E-2,9.0296485E-2,-1.28198685E-2],"split_indices":[17,40,25,37,6,7,0,0,29,19,4,4,0,42,7,40,0,0,0,0,39,0,0,19,29,0,0,38,33,0,0,0,0,0,0,0,0,0,0],"split_type":[0,0,0,0,0,0,0,0,0,0,0,0,0,0,0,0,0,0,0,0,0,0,0,0,0,0,0,0,0,0,0,0,0,0,0,0,0,0,0],"sum_hessian":[3.1055103E2,2.9711774E2,1.3433291E1,2.8220294E2,1.4914803E1,1.1867716E1,1.5655752E0,2.669227E2,1.528025E1,1.1076255E1,3.838547E0,1.0626924E1,1.2407924E0,2.6399213E2,2.9305573E0,1.1800985E1,3.479264E0,9.528973E0,1.5472829E0,1.4203663E0,2.4181807E0,1.0852287E0,9.541695E0,1.2892946E2,1.3506267E2,1.7244523E0,1.206105E0,5.7676945E0,6.0332904E0,1.0273826E0,1.390798E0,7.3864865E0,1.2154297E2,1.2271968E2,1.2342997E1,1.8011541E0,3.9665406E0,4.7023287E0,1.3309617E0],"tree_param":{"num_deleted":"0","num_feature":"43","num_nodes":"39","size_leaf_vector":"1"}},{"base_weights":[6.1495967E-2,-3.73914E-2,1.6658797E0,-1.3359585E-1,1.3813559E0,1.776299E0,5.7999325E-1,-2.134118E-1,8.878498E-1,8.7254244E-1,1.0974349E-1,1.9763839E0,4.949817E-2,3.6974456E-2,7.539909E-3,-2.450791E-1,1.9140924E0,1.4049352E0,3.4632713E-1,2.524256E-1,8.02305E-2,3.2795507E-2,1.0493165E-1,-5.488367E-1,1.1013123E-3,1.7823871E-2,1.1822853E-1,1.629115E0,4.686001E-3,1.2066047E0,-1.6170162E-1,-8.717007E-2,6.683237E-2,5.2021015E-2,-3.1800672E-2,-6.782265E-3,5.978868E-2,9.44323E-2,1.9299582E-2,8.183549E-2,9.028024E-3,-2.6628915E-2,4.840188E-2,-2.2416083E-2,3.516092E-2],"categories":[],"categories_nodes":[],"categories_segments":[],"categories_sizes":[],"default_left":[0,0,0,0,0,0,0,0,0,0,0,0,0,0,0,0,0,0,0,0,0,0,0,0,0,0,0,0,0,0,0,0,0,0,0,0,0,0,0,0,0,0,0,0,0],"id":10,"left_children":[1,3,5,7,9,11,13,15,17,19,-1,21,-1,-1,-1,23,25,27,29,31,-1,-1,-1,33,35,-1,-1,37,-1,39,41,43,-1,-1,-1,-1,-1,-1,-1,-1,-1,-1,-1,-1,-1],"loss_changes":[4.906128E1,4.0024643E1,1.1223259E0,2.2549774E1,5.7939415E0,5.310135E-1,1.03560925E-1,1.7662167E1,5.133792E0,5.5499735E0,0E0,4.960518E-1,0E0,0E0,0E0,1.8870262E1,1.8629398E0,2.7692795E0,5.0600224E0,3.1683407E0,0E0,0E0,0E0,1.6312122E1,2.3095192E1,0E0,0E0,1.9901085E0,0E0,1.5804963E0,3.8173523E0,2.3849034E0,0E0,0E0,0E0,0E0,0E0,0E0,0E0,0E0,0E0,0E0,0E0,0E0,0E0],"parents":[2147483647,0,0,1,1,2,2,3,3,4,4,5,5,6,6,7,7,8,8,9,9,11,11,15,15,16,16,17,17,18,18,19,19,23,23,24,24,27,27,29,29,30,30,31,31],"right_children":[2,4,6,8,10,12,14,16,18,20,-1,22,-1,-1,-1,24,26,28,30,32,-1,-1,-1,34,36,-1,-1,38,-1,40,42,44,-1,-1,-1,-1,-1,-1,-1,-1,-1,-1,-1,-1,-1],"split_conditions":[5.48067E0,1.5218744E0,5.834156E-1,9.0123624E-1,9.604039E0,1.0621552E0,-1.0266281E0,1.6873167E0,-2.620865E-1,4.4644007E-1,1.0974349E-1,-1.4411042E0,4.949817E-2,3.6974456E-2,7.539909E-3,1.2485259E-1,-2.7898636E-1,1.3475991E0,8.4195875E-2,1.4097096E0,8.02305E-2,3.2795507E-2,1.0493165E-1,-4.8762918E-2,9.031199E-1,1.7823871E-2,1.1822853E-1,1.0644414E0,4.686001E-3,3.775386E-1,1.7663792E0,9.6211815E-1,6.683237E-2,5.2021015E-2,-3.1800672E-2,-6.782265E-3,5.978868E-2,9.44323E-2,1.9299582E-2,8.183549E-2,9.028024E-3,-2.6628915E-2,4.840188E-2,-2.2416083E-2,3.516092E-2],"split_indices":[17,40,25,21,27,36,7,0,3,25,0,4,0,0,0,35,5,1,0,33,0,0,0,19,29,0,0,6,0,36,41,34,0,0,0,0,0,0,0,0,0,0,0,0,0],"split_type":[0,0,0,0,0,0,0,0,0,0,0,0,0,0,0,0,0,0,0,0,0,0,0,0,0,0,0,0,0,0,0,0,0,0,0,0,0,0,0,0,0,0,0,0,0],"sum_hessian":[3.0784323E2,2.9089066E2,1.6952564E1,2.7326645E2,1.7624208E1,1.4810719E1,2.1418447E0,2.541947E2,1.9071749E1,1.2117721E1,5.5064874E0,1.0600091E1,4.210628E0,1.0344565E0,1.1073884E0,2.513384E2,2.856298E0,8.9403925E0,1.0131356E1,7.288564E0,4.8291564E0,1.437568E0,9.162523E0,1.1196159E2,1.393768E2,1.0426087E0,1.8136892E0,7.4279766E0,1.5124158E0,3.2510588E0,6.880297E0,6.25043E0,1.038134E0,5.253535E0,1.0670806E2,1.25857185E2,1.3519622E1,5.7154655E0,1.7125112E0,1.8714182E0,1.3796405E0,5.5777783E0,1.302519E0,4.5871916E0,1.6632386E0],"tree_param":{"num_deleted":"0","num_feature":"43","num_nodes":"45","size_leaf_vector":"1"}},{"base_weights":[4.895131E-3,-8.7914824E-2,9.403291E-2,-1.3830402E-1,1.9643158E0,-1.8027471E-1,1.770416E0,1.07235484E-1,3.6085304E-2,-2.3847036E-1,8.252428E-1,-8.0209635E-3,2.2492952E0,-5.5798715E-1,2.4467248E-2,1.8680885E-1,1.8069353E0,1.2477453E-1,3.7553236E-2,4.3788098E-2,-3.2839682E-2,-6.3872114E-3,5.206847E-2,-1.2175411E-2,6.7632936E-2,1.315666E-1,2.2986066E-3],"categories":[],"categories_nodes":[],"categories_segments":[],"categories_sizes":[],"default_left":[0,0,0,0,0,0,0,0,0,0,0,0,0,0,0,0,0,0,0,0,0,0,0,0,0,0,0],"id":11,"left_children":[1,3,-1,5,7,9,11,-1,-1,13,15,-1,17,19,21,23,25,-1,-1,-1,-1,-1,-1,-1,-1,-1,-1],"loss_changes":[5.3667328E1,3.0652672E1,0E0,2.3365643E1,4.5129776E-2,1.6722057E1,6.1695595E0,0E0,0E0,2.250627E1,9.486307E0,0E0,7.009506E-3,1.7702686E1,2.3014057E1,5.653756E0,8.678577E0,0E0,0E0,0E0,0E0,0E0,0E0,0E0,0E0,0E0,0E0],"parents":[2147483647,0,0,1,1,3,3,4,4,5,5,6,6,9,9,10,10,12,12,13,13,14,14,15,15,16,16],"right_children":[2,4,-1,6,8,10,12,-1,-1,14,16,-1,18,20,22,24,26,-1,-1,-1,-1,-1,-1,-1,-1,-1,-1],"split_conditions":[5.724662E0,9.604039E0,9.403291E-2,1.6294721E0,5.2891296E-1,1.747359E0,-7.72556E-1,1.07235484E-1,3.6085304E-2,1.8425375E-1,-1.0470321E0,-8.0209635E-3,3.386856E-1,-1.5010683E-2,8.862697E-1,2.3327587E0,9.981326E-1,1.2477453E-1,3.7553236E-2,4.3788098E-2,-3.2839682E-2,-6.3872114E-3,5.206847E-2,-1.2175411E-2,6.7632936E-2,1.315666E-1,2.2986066E-3],"split_indices":[17,27,0,0,19,41,6,0,0,42,7,0,36,36,29,41,21,0,0,0,0,0,0,0,0,0,0],"split_type":[0,0,0,0,0,0,0,0,0,0,0,0,0,0,0,0,0,0,0,0,0,0,0,0,0,0,0],"sum_hessian":[3.0632465E2,2.9279092E2,1.3533726E1,2.8668445E2,6.1064653E0,2.8140228E2,5.2821774E0,4.6984096E0,1.4080558E0,2.6672787E2,1.467439E1,1.1818765E0,4.1003013E0,1.19902504E2,1.4682538E2,9.612978E0,5.061412E0,2.9499314E0,1.1503698E0,7.223352E0,1.1267915E2,1.2847015E2,1.835523E1,7.599224E0,2.0137534E0,3.1108205E0,1.9505913E0],"tree_param":{"num_deleted":"0","num_feature":"43","num_nodes":"27","size_leaf_vector":"1"}},{"base_weights":[4.192955E-2,-4.3532167E-2,1.5517642E0,-9.8867245E-2,1.3666877E0,1.6838405E0,5.4739064E-1,-1.6689275E-1,9.323079E-1,8.559267E-3,1.4748366E0,9.2824236E-2,7.5155747E-1,3.228665E-4,4.1873477E-2,-4.3310338E-1,8.061667E-2,4.2484072E-1,1.5221063E0,2.0175438E-2,8.309456E-2,5.0663646E-2,5.3910986E-3,-5.258947E-1,1.3834159E0,-7.955189E-2,1.2264017E0,7.8773993E-1,-3.9425053E-2,-1.5336267E-2,1.9616919E0,-3.1177858E-2,3.2010984E-2,-1.1356689E-2,9.24536E-2,6.7816794E-2,-9.75155E-3,-1.038204E-2,9.2483565E-2,5.201912E-2,-2.9692814E-2,4.007561E-2,1.14802115E-1],"categories":[],"categories_nodes":[],"categories_segments":[],"categories_sizes":[],"default_left":[0,0,0,0,0,0,0,0,0,0,0,0,0,0,0,0,0,0,0,0,0,0,0,0,0,0,0,0,0,0,0,0,0,0,0,0,0,0,0,0,0,0,0],"id":12,"left_children":[1,3,5,7,9,11,13,15,17,-1,19,-1,21,-1,-1,23,25,27,29,-1,-1,-1,-1,31,33,35,37,39,-1,-1,41,-1,-1,-1,-1,-1,-1,-1,-1,-1,-1,-1,-1],"loss_changes":[3.9775875E1,2.293875E1,1.2688103E0,1.9945486E1,1.1828041E0,8.761673E-1,5.282221E-1,1.752941E1,4.624503E0,0E0,1.343153E0,0E0,5.453129E-1,0E0,0E0,2.231637E1,2.5502405E1,5.400203E0,6.838421E0,0E0,0E0,0E0,0E0,1.4359322E1,5.2947817E0,2.0559126E1,1.5613337E1,3.7086802E0,0E0,0E0,6.382923E-1,0E0,0E0,0E0,0E0,0E0,0E0,0E0,0E0,0E0,0E0,0E0,0E0],"parents":[2147483647,0,0,1,1,2,2,3,3,4,4,5,5,6,6,7,7,8,8,10,10,12,12,15,15,16,16,17,17,18,18,23,23,24,24,25,25,26,26,27,27,30,30],"right_children":[2,4,6,8,10,12,14,16,18,-1,20,-1,22,-1,-1,24,26,28,30,-1,-1,-1,-1,32,34,36,38,40,-1,-1,42,-1,-1,-1,-1,-1,-1,-1,-1,-1,-1,-1,-1],"split_conditions":[4.7593603E0,1.9863441E0,6.585967E0,1.583963E0,-1.4362898E0,-1.1812471E0,7.226343E-1,2.140741E-1,4.0681288E-3,8.559267E-3,-8.804573E-1,9.2824236E-2,-1.4987081E0,3.228665E-4,4.1873477E-2,1.596418E0,8.862697E-1,-3.9220816E-1,-4.438193E-1,2.0175438E-2,8.309456E-2,5.0663646E-2,5.3910986E-3,9.0123624E-1,-8.205821E-1,-7.584614E-1,-2.9933572E-1,1.3204268E0,-3.9425053E-2,-1.5336267E-2,-3.1390163E-1,-3.1177858E-2,3.2010984E-2,-1.1356689E-2,9.24536E-2,6.7816794E-2,-9.75155E-3,-1.038204E-2,9.2483565E-2,5.201912E-2,-2.9692814E-2,4.007561E-2,1.14802115E-1],"split_indices":[17,40,17,39,0,19,1,42,5,0,34,0,1,0,0,0,29,5,3,0,0,0,0,21,6,7,40,1,0,0,4,0,0,0,0,0,0,0,0,0,0,0,0],"split_type":[0,0,0,0,0,0,0,0,0,0,0,0,0,0,0,0,0,0,0,0,0,0,0,0,0,0,0,0,0,0,0,0,0,0,0,0,0,0,0,0,0,0,0],"sum_hessian":[3.067376E2,2.912245E2,1.5513117E1,2.8112347E2,1.0101006E1,1.3112324E1,2.4007938E0,2.6451205E2,1.661142E1,1.0522349E0,9.04877E0,1.0227095E1,2.8852289E0,1.1948749E0,1.2059188E0,1.2708017E2,1.3743188E2,9.85361E0,6.7578087E0,1.814374E0,7.2343965E0,1.6431445E0,1.2420843E0,1.2158012E2,5.500055E0,1.21393005E2,1.6038881E1,7.855016E0,1.9985938E0,1.3681325E0,5.389676E0,1.1261393E2,8.966183E0,1.3484483E0,4.1516066E0,8.236284E0,1.1315672E2,5.061058E0,1.0977823E1,6.8494735E0,1.0055429E0,1.9657708E0,3.4239054E0],"tree_param":{"num_deleted":"0","num_feature":"43","num_nodes":"43","size_leaf_vector":"1"}},{"base_weights":[2.2758614E-2,-5.9832558E-2,1.4971592E0,-1.2131532E-1,1.5907874E0,1.5832561E0,2.3197455E-2,-1.5751897E-1,1.6027557E0,6.371444E-1,9.0990655E-2,1.6989313E0,2.7356109E-2,3.2300666E-1,-2.806414E-1,2.2897946E-2,8.98987E-2,5.6027733E-3,4.3673266E-2,3.608717E-2,9.326884E-2,-2.948508E-1,2.2302935E0,-3.8848156E-1,5.4629785E-1,-1.9733863E-2,5.6390464E-2,1.3461016E-1,2.2066727E-2,4.6249118E-2,-2.2571253E-2,6.662546E-2,-8.7206374E-4],"categories":[],"categories_nodes":[],"categories_segments":[],"categories_sizes":[],"default_left":[0,0,0,0,0,0,0,0,0,0,0,0,0,0,0,0,0,0,0,0,0,0,0,0,0,0,0,0,0,0,0,0,0],"id":13,"left_children":[1,3,5,7,9,11,-1,13,15,17,-1,19,-1,21,23,-1,-1,-1,-1,-1,-1,25,27,29,31,-1,-1,-1,-1,-1,-1,-1,-1],"loss_changes":[3.73594E1,2.9703476E1,7.130852E-1,1.7808952E1,1.1366997E0,8.2123184E-1,0E0,1.644343E1,4.8946E-1,3.4569836E-1,0E0,7.13665E-1,0E0,6.764026E1,1.9881113E1,0E0,0E0,0E0,0E0,0E0,0E0,6.667816E0,1.0400909E1,1.6596786E1,1.148498E1,0E0,0E0,0E0,0E0,0E0,0E0,0E0,0E0],"parents":[2147483647,0,0,1,1,2,2,3,3,4,4,5,5,7,7,8,8,9,9,11,11,13,13,14,14,21,21,22,22,23,23,24,24],"right_children":[2,4,6,8,10,12,-1,14,16,18,-1,20,-1,22,24,-1,-1,-1,-1,-1,-1,26,28,30,32,-1,-1,-1,-1,-1,-1,-1,-1],"split_conditions":[5.615332E0,2.0199819E0,1.1832426E0,9.604039E0,5.2216184E-1,1.010851E0,2.3197455E-2,-4.582513E-2,-1.2148287E0,2.556225E0,9.0990655E-2,5.743328E0,2.7356109E-2,4.4128996E-1,8.6568844E-1,2.2897946E-2,8.98987E-2,5.6027733E-3,4.3673266E-2,3.608717E-2,9.326884E-2,1.5708857E0,7.6500314E-1,3.1493875E-1,-3.4275004E-1,-1.9733863E-2,5.6390464E-2,1.3461016E-1,2.2066727E-2,4.6249118E-2,-2.2571253E-2,6.662546E-2,-8.7206374E-4],"split_indices":[17,41,0,27,0,29,0,36,34,37,0,17,0,20,21,0,0,0,0,0,0,2,29,19,41,0,0,0,0,0,0,0,0],"split_type":[0,0,0,0,0,0,0,0,0,0,0,0,0,0,0,0,0,0,0,0,0,0,0,0,0,0,0,0,0,0,0,0,0],"sum_hessian":[3.0506116E2,2.8978763E2,1.5273549E1,2.8027438E2,9.513236E0,1.3607295E1,1.6662548E0,2.7539993E2,4.8744683E0,2.574639E0,6.938597E0,1.1665286E1,1.942009E0,5.584052E1,2.195594E2,1.1975704E0,3.676898E0,1.256639E0,1.318E0,2.4744146E0,9.190871E0,4.28159E1,1.302462E1,1.9469913E2,2.4860268E1,4.0683746E1,2.1321545E0,9.9505E0,3.0741208E0,8.277347E0,1.8642178E2,9.812163E0,1.5048103E1],"tree_param":{"num_deleted":"0","num_feature":"43","num_nodes":"33","size_leaf_vector":"1"}},{"base_weights":[-3.0032128E-2,-1.2202578E-1,1.418143E0,-2.015478E-1,1.0789703E0,8.3477944E-2,5.706422E-1,7.301774E-1,-3.0285186E-1,5.9946156E-1,1.6869953E0,1.8343264E-3,3.6050275E-2,9.505931E-2,2.0010858E0,1.987716E-1,-4.426255E-1,1.8778095E-1,7.528739E-2,2.6358744E-2,9.45039E-2,1.1763448E0,-2.0723458E-1,1.9121891E-1,6.167941E-1,-3.263996E-1,1.5474068E0,-5.105861E-1,9.49359E-1,4.0824648E-2,-4.617712E-2,-8.3176885E-3,8.627518E-2,-1.923139E-2,4.281353E-2,-2.8816313E-2,7.9914436E-2,-2.2281598E-2,7.6816544E-2,-2.9150143E-2,1.0120889E-1,8.5026145E-2,-2.753414E-2,9.808795E-2,1.5373296E-2,2.0474507E-2,-4.1812062E-2],"categories":[],"categories_nodes":[],"categories_segments":[],"categories_sizes":[],"default_left":[0,0,0,0,0,0,0,0,0,0,0,0,0,0,0,0,0,0,0,0,0,0,0,0,0,0,0,0,0,0,0,0,0,0,0,0,0,0,0,0,0,0,0,0,0,0,0],"id":14,"left_children":[1,3,5,7,9,-1,11,13,15,17,19,-1,-1,21,23,25,27,29,-1,-1,-1,31,33,-1,35,37,39,41,43,-1,45,-1,-1,-1,-1,-1,-1,-1,-1,-1,-1,-1,-1,-1,-1,-1,-1],"loss_changes":[4.0519287E1,2.7501453E1,2.9184723E0,2.5590702E1,4.207077E0,0E0,4.2925072E-1,2.1321991E1,1.7134714E1,4.029548E0,7.3257256E-1,0E0,0E0,6.395547E0,1.9929604E1,3.851979E1,1.8501945E1,1.3748049E0,0E0,0E0,0E0,3.4295049E0,3.2646186E0,0E0,8.195589E0,9.447715E0,1.6636402E1,1.709362E1,5.385545E0,0E0,3.0681872E0,0E0,0E0,0E0,0E0,0E0,0E0,0E0,0E0,0E0,0E0,0E0,0E0,0E0,0E0,0E0,0E0],"parents":[2147483647,0,0,1,1,2,2,3,3,4,4,6,6,7,7,8,8,9,9,10,10,13,13,14,14,15,15,16,16,17,17,21,21,22,22,24,24,25,25,26,26,27,27,28,28,30,30],"right_children":[2,4,6,8,10,-1,12,14,16,18,20,-1,-1,22,24,26,28,30,-1,-1,-1,32,34,-1,36,38,40,42,44,-1,46,-1,-1,-1,-1,-1,-1,-1,-1,-1,-1,-1,-1,-1,-1,-1,-1],"split_conditions":[4.7593603E0,1.5218744E0,1.0621552E0,-1.8097353E0,9.40981E0,8.3477944E-2,-7.2132427E-1,-5.254277E-2,3.1493875E-1,1.147248E0,-1.5225887E0,1.8343264E-3,3.6050275E-2,-1.5010683E-2,7.7628493E-1,-6.634539E-1,1.7241122E0,-1.9362246E0,7.528739E-2,2.6358744E-2,9.45039E-2,-5.6035787E-1,5.7984215E-1,1.9121891E-1,2.5424734E-1,4.4128996E-1,-1.3712727E0,-4.582513E-2,-8.5455525E-1,4.0824648E-2,5.917373E-1,-8.3176885E-3,8.627518E-2,-1.923139E-2,4.281353E-2,-2.8816313E-2,7.9914436E-2,-2.2281598E-2,7.6816544E-2,-2.9150143E-2,1.0120889E-1,8.5026145E-2,-2.753414E-2,9.808795E-2,1.5373296E-2,2.0474507E-2,-4.1812062E-2],"split_indices":[17,40,36,40,27,0,4,5,19,37,4,0,0,36,6,36,41,36,0,0,0,0,36,0,29,20,35,36,34,0,32,0,0,0,0,0,0,0,0,0,0,0,0,0,0,0,0],"split_type":[0,0,0,0,0,0,0,0,0,0,0,0,0,0,0,0,0,0,0,0,0,0,0,0,0,0,0,0,0,0,0,0,0,0,0,0,0,0,0,0,0,0,0,0,0,0,0],"sum_hessian":[3.0184756E2,2.8467938E2,1.716819E1,2.6778088E2,1.6898497E1,1.24923E1,4.675889E0,2.5651176E1,2.421297E2,1.0558011E1,6.3404846E0,1.3007563E0,3.3751328E0,1.7820456E1,7.8307204E0,5.2673065E1,1.8945663E2,8.090224E0,2.4677875E0,1.4805903E0,4.8598943E0,3.2618036E0,1.4558653E1,2.6187663E0,5.211954E0,3.845594E1,1.4217126E1,1.8124113E2,8.215505E0,1.5188173E0,6.571407E0,1.1491636E0,2.1126401E0,1.3024499E1,1.5341536E0,2.5386899E0,2.6732643E0,3.6857475E1,1.5984632E0,2.559117E0,1.1658009E1,2.490553E0,1.7875058E2,2.389909E0,5.8255954E0,4.473201E0,2.0982058E0],"tree_param":{"num_deleted":"0","num_feature":"43","num_nodes":"47","size_leaf_vector":"1"}},{"base_weights":[2.98579E-2,5.5664265E-1,-1.4458935E-1,-9.337915E-2,1.465897E0,-2.2216848E-1,9.9494547E-1,1.1398109E-1,-2.0214097E-1,1.8230512E0,8.961638E-1,-2.8309545E-1,1.4157133E0,1.7672635E0,5.379741E-1,-3.59501E-1,9.734312E-1,1.9321537E0,1.4634593E-2,-1.370248E-1,1.1715025E0,-5.4893297E-1,7.398905E-3,1.696439E-2,1.5650072E0,1.09058216E-1,3.7102815E-2,-3.0507904E-1,1.0631157E0,-4.6204236E-1,7.234835E-1,1.3857434E0,-1.0598962E-2,2.057113E-2,2.0444245E0,2.1781692E-2,-3.803345E-2,8.196107E-3,6.684918E-2,-5.9650767E-1,9.994311E-2,1.0252775E0,-1.6706824E-1,1.9445805E-2,8.794955E-2,-4.185814E-2,4.2572554E-2,6.773233E-3,1.3682984E0,-2.8779084E-2,1.3894163E-2,-3.2968286E-2,9.045058E-2,8.409376E-3,9.269268E-2,1.09305516E-1,4.9979657E-2,-3.272013E-2,5.041185E-2,6.920052E-2,-2.6341071E-2,-2.1957053E-2,3.3438887E-2,9.024875E-2,1.3209134E-2],"categories":[],"categories_nodes":[],"categories_segments":[],"categories_sizes":[],"default_left":[0,0,0,0,0,0,0,0,0,0,0,0,0,0,0,0,0,0,0,0,0,0,0,0,0,0,0,0,0,0,0,0,0,0,0,0,0,0,0,0,0,0,0,0,0,0,0,0,0,0,0,0,0,0,0,0,0,0,0,0,0,0,0,0,0],"id":15,"left_children":[1,3,5,7,9,11,13,-1,15,17,19,21,23,25,27,29,31,33,-1,35,37,39,41,-1,43,-1,-1,45,47,49,51,53,-1,-1,55,-1,-1,-1,-1,57,-1,59,61,-1,-1,-1,-1,-1,63,-1,-1,-1,-1,-1,-1,-1,-1,-1,-1,-1,-1,-1,-1,-1,-1],"loss_changes":[2.7911932E1,4.4788902E1,2.040448E1,1.2073547E1,4.786995E0,2.1813347E1,4.2496395E0,0E0,8.478564E0,2.5114326E0,4.178912E0,1.6044441E1,7.32502E-1,5.2005196E-1,5.059291E0,4.719013E0,2.9610147E0,2.0654106E0,0E0,1.7126154E0,1.6579428E0,1.4340286E1,1.797247E1,0E0,8.2798004E-1,0E0,0E0,3.7170553E0,1.7434454E0,3.241387E0,6.904398E0,2.0715046E0,0E0,0E0,1.2438202E-1,0E0,0E0,0E0,0E0,1.0624378E1,0E0,8.973742E0,1.9949299E1,0E0,0E0,0E0,0E0,0E0,1.9418898E0,0E0,0E0,0E0,0E0,0E0,0E0,0E0,0E0,0E0,0E0,0E0,0E0,0E0,0E0,0E0,0E0],"parents":[2147483647,0,0,1,1,2,2,3,3,4,4,5,5,6,6,8,8,9,9,10,10,11,11,12,12,13,13,14,14,15,15,16,16,17,17,19,19,20,20,21,21,22,22,24,24,27,27,28,28,29,29,30,30,31,31,34,34,39,39,41,41,42,42,48,48],"right_children":[2,4,6,8,10,12,14,-1,16,18,20,22,24,26,28,30,32,34,-1,36,38,40,42,-1,44,-1,-1,46,48,50,52,54,-1,-1,56,-1,-1,-1,-1,58,-1,60,62,-1,-1,-1,-1,-1,64,-1,-1,-1,-1,-1,-1,-1,-1,-1,-1,-1,-1,-1,-1,-1,-1],"split_conditions":[2.931602E-1,-6.634539E-1,1.7663792E0,-9.7084445E-1,-3.259186E-1,9.604039E0,-8.307047E-1,1.1398109E-1,1.5988699E0,6.1496156E-1,-5.855167E-1,1.879813E-1,-1.5225887E0,-3.1399366E-2,2.0199819E0,1.7833699E0,-1.917468E0,-1.1183517E0,1.4634593E-2,-4.5531642E-1,-1.915855E0,1.585693E0,-1.3453913E0,1.696439E-2,-1.2148287E0,1.09058216E-1,3.7102815E-2,6.948297E-1,-8.299703E-1,6.446968E-1,-6.1865175E-1,-5.484405E-1,-1.0598962E-2,2.057113E-2,8.542214E-1,2.1781692E-2,-3.803345E-2,8.196107E-3,6.684918E-2,1.6294721E0,9.994311E-2,5.758229E-1,7.618036E-1,1.9445805E-2,8.794955E-2,-4.185814E-2,4.2572554E-2,6.773233E-3,1.0577545E0,-2.8779084E-2,1.3894163E-2,-3.2968286E-2,9.045058E-2,8.409376E-3,9.269268E-2,1.09305516E-1,4.9979657E-2,-3.272013E-2,5.041185E-2,6.920052E-2,-2.6341071E-2,-2.1957053E-2,3.3438887E-2,9.024875E-2,1.3209134E-2],"split_indices":[19,36,41,3,34,27,2,0,37,25,4,42,4,1,41,42,36,41,0,7,3,29,0,0,34,0,0,21,4,9,5,34,0,0,21,0,0,0,0,0,0,36,0,0,0,0,0,0,4,0,0,0,0,0,0,0,0,0,0,0,0,0,0,0,0],"split_type":[0,0,0,0,0,0,0,0,0,0,0,0,0,0,0,0,0,0,0,0,0,0,0,0,0,0,0,0,0,0,0,0,0,0,0,0,0,0,0,0,0,0,0,0,0,0,0,0,0,0,0,0,0,0,0,0,0,0,0,0,0,0,0,0,0],"sum_hessian":[3.018576E2,7.454884E1,2.2730876E2,4.39946E1,3.0554241E1,2.1357378E2,1.3734992E1,1.053313E0,4.2941288E1,1.7428703E1,1.3125537E1,2.0671155E2,6.8622284E0,4.0398993E0,9.695092E0,3.8484066E1,4.457219E0,1.6023787E1,1.4049175E0,2.867561E0,1.0257977E1,1.0747199E2,9.9239555E1,1.234435E0,5.627794E0,2.0747414E0,1.9651581E0,3.8820193E0,5.8130727E0,3.567918E1,2.804887E0,3.1815917E0,1.2756273E0,1.4223472E0,1.46014385E1,1.6520467E0,1.2155145E0,1.7278754E0,8.530101E0,1.062538E2,1.2181927E0,1.3807431E1,8.543212E1,1.2222692E0,4.4055243E0,2.8479214E0,1.034098E0,1.7964278E0,4.016645E0,3.112522E1,4.5539613E0,1.406165E0,1.398722E0,1.2610049E0,1.9205868E0,1.1895963E1,2.7054763E0,1.0312551E2,3.128287E0,1.1303238E1,2.5041928E0,6.4810524E1,2.0621595E1,2.4234169E0,1.5932281E0],"tree_param":{"num_deleted":"0","num_feature":"43","num_nodes":"65","size_leaf_vector":"1"}},{"base_weights":[7.724045E-2,-4.434824E-3,1.3117588E0,-6.712275E-2,8.991675E-1,1.3911526E0,1.3588506E-2,-9.696663E-2,1.994989E0,1.0629476E0,-8.860748E-2,2.6475055E-2,1.4846998E0,-4.0518054E-1,1.4038606E-1,2.7695775E-2,1.2960474E-1,1.2162027E0,1.8007313E-1,3.4722187E-2,-3.457745E-2,1.5945137E0,2.5567552E-2,-4.9225083E-1,1.2895108E0,1.0661633E0,1.7418863E-2,5.6398565E-1,1.5360471E0,-1.770979E-2,2.7769033E-2,8.49318E-2,2.3775639E-2,4.1999508E-2,-2.9077828E-2,-1.3183956E-2,9.294571E-2,1.15052834E-1,2.8401826E-2,4.6949845E-2,-4.3681036E-3,-1.6269874E-2,4.672496E-2,8.865469E-2,1.4801162E-2],"categories":[],"categories_nodes":[],"categories_segments":[],"categories_sizes":[],"default_left":[0,0,0,0,0,0,0,0,0,0,0,0,0,0,0,0,0,0,0,0,0,0,0,0,0,0,0,0,0,0,0,0,0,0,0,0,0,0,0,0,0,0,0,0,0],"id":16,"left_children":[1,3,5,7,9,11,-1,13,15,17,19,-1,21,23,25,-1,-1,27,29,-1,-1,31,-1,33,35,37,39,41,43,-1,-1,-1,-1,-1,-1,-1,-1,-1,-1,-1,-1,-1,-1,-1,-1],"loss_changes":[2.9862354E1,1.584904E1,1.1393871E0,1.6291365E1,3.0307903E0,5.7058716E-1,0E0,1.8989538E1,1.8150988E0,1.8981571E0,2.1349468E0,0E0,7.483063E-1,1.7286657E1,1.6710272E1,0E0,0E0,1.8787918E0,8.961524E-1,0E0,0E0,6.689491E-1,0E0,1.3345051E1,5.61166E0,9.281555E0,1.2706456E1,2.2516084E0,1.899889E0,0E0,0E0,0E0,0E0,0E0,0E0,0E0,0E0,0E0,0E0,0E0,0E0,0E0,0E0,0E0,0E0],"parents":[2147483647,0,0,1,1,2,2,3,3,4,4,5,5,7,7,8,8,9,9,10,10,12,12,13,13,14,14,17,17,18,18,21,21,23,23,24,24,25,25,26,26,27,27,28,28],"right_children":[2,4,6,8,10,12,-1,14,16,18,20,-1,22,24,26,-1,-1,28,30,-1,-1,32,-1,34,36,38,40,42,44,-1,-1,-1,-1,-1,-1,-1,-1,-1,-1,-1,-1,-1,-1,-1,-1],"split_conditions":[5.48067E0,1.5218744E0,1.6328925E0,1.4881825E0,5.758229E-1,-1.7704688E0,1.3588506E-2,1.2485259E-1,4.4179875E-1,5.20746E-1,3.758769E-1,2.6475055E-2,1.1832426E0,1.6294721E0,-1.0487059E0,2.7695775E-2,1.2960474E-1,-2.8953704E-1,-8.015739E-1,3.4722187E-2,-3.457745E-2,1.2128086E0,2.5567552E-2,-4.582513E-2,-7.72556E-1,-5.728823E-1,-1.3784453E0,9.973828E-1,4.88778E-1,-1.770979E-2,2.7769033E-2,8.49318E-2,2.3775639E-2,4.1999508E-2,-2.9077828E-2,-1.3183956E-2,9.294571E-2,1.15052834E-1,2.8401826E-2,4.6949845E-2,-4.3681036E-3,-1.6269874E-2,4.672496E-2,8.865469E-2,1.4801162E-2],"split_indices":[17,40,36,29,36,3,0,35,19,19,25,0,0,0,6,0,0,1,34,0,0,13,0,36,6,7,0,13,25,0,0,0,0,0,0,0,0,0,0,0,0,0,0,0,0],"split_type":[0,0,0,0,0,0,0,0,0,0,0,0,0,0,0,0,0,0,0,0,0,0,0,0,0,0,0,0,0,0,0,0,0,0,0,0,0,0,0,0,0,0,0,0,0],"sum_hessian":[2.951088E2,2.7773065E2,1.737815E1,2.6057858E2,1.7152071E1,1.5831867E1,1.546284E0,2.5780054E2,2.7780378E0,1.4647335E1,2.5047357E0,2.2027628E0,1.3629104E1,1.11850365E2,1.4595018E2,1.3785855E0,1.3994524E0,1.2159125E1,2.4882095E0,1.0236036E0,1.4811321E0,1.1673878E1,1.955226E0,1.0705938E2,4.7909904E0,1.6213566E1,1.2973662E2,4.910036E0,7.2490897E0,1.0498903E0,1.4383192E0,1.0206203E1,1.4676745E0,6.1977067E0,1.0086167E2,1.4292564E0,3.361734E0,3.619971E0,1.25935955E1,1.24320135E1,1.173046E2,1.479765E0,3.4302711E0,5.724828E0,1.524262E0],"tree_param":{"num_deleted":"0","num_feature":"43","num_nodes":"45","size_leaf_vector":"1"}},{"base_weights":[3.548208E-2,-4.039845E-2,1.1639911E0,-1.1012067E-1,8.201973E-1,6.369325E-1,1.3491985E0,-2.1486165E-1,4.6529692E-1,4.8438406E-1,1.0304228E-1,-6.772277E-4,4.0022794E-2,7.665304E-2,4.700424E-1,1.4310172E0,-2.6748452E-1,1.6580005E-1,2.0105445E0,3.5467222E-2,1.2309346E0,-4.282933E-3,3.9145138E-2,1.8180971E0,3.363667E-3,-3.2487926E-1,8.347117E-1,-5.740121E-2,1.7169505E0,-1.1940874E-2,2.6130342E0,-6.6142744E-1,6.248359E-1,8.992373E-2,2.7122334E-1,1.2331591E-1,4.0642235E-2,6.6887634E-3,-2.3423642E-2,5.4683085E-3,4.81589E-2,5.620212E-2,-1.1982862E-2,-8.769586E-3,1.2403603E-1,1.6465439E-2,1.5512553E-1,6.0006226E-3,-4.5547437E-2,5.447511E-2,-4.607443E-3,-1.5466112E-3,2.30675E-2],"categories":[],"categories_nodes":[],"categories_segments":[],"categories_sizes":[],"default_left":[0,0,0,0,0,0,0,0,0,0,0,0,0,0,0,0,0,0,0,0,0,0,0,0,0,0,0,0,0,0,0,0,0,0,0,0,0,0,0,0,0,0,0,0,0,0,0,0,0,0,0,0,0],"id":17,"left_children":[1,3,5,7,9,11,13,15,17,19,-1,-1,-1,-1,21,23,25,27,29,31,33,-1,-1,35,-1,37,39,41,43,-1,45,47,49,-1,51,-1,-1,-1,-1,-1,-1,-1,-1,-1,-1,-1,-1,-1,-1,-1,-1,-1,-1],"loss_changes":[2.5485535E1,1.6850168E1,9.7091675E-1,1.5725928E1,7.7724686E0,7.3091936E-1,1.3775597E0,1.9439331E1,1.8290365E1,5.9468293E0,0E0,0E0,0E0,0E0,7.081172E-1,3.5592642E0,1.3812087E1,1.2146361E1,9.356262E0,5.420917E0,3.1520214E0,0E0,0E0,1.5101032E0,0E0,1.3509674E1,9.0799713E-1,7.0281243E0,6.808546E0,0E0,4.7529144E0,1.2933221E0,2.4724438E0,0E0,2.2458011E-1,0E0,0E0,0E0,0E0,0E0,0E0,0E0,0E0,0E0,0E0,0E0,0E0,0E0,0E0,0E0,0E0,0E0,0E0],"parents":[2147483647,0,0,1,1,2,2,3,3,4,4,5,5,6,6,7,7,8,8,9,9,14,14,15,15,16,16,17,17,18,18,19,19,20,20,23,23,25,25,26,26,27,27,28,28,30,30,31,31,32,32,34,34],"right_children":[2,4,6,8,10,12,14,16,18,20,-1,-1,-1,-1,22,24,26,28,30,32,34,-1,-1,36,-1,38,40,42,44,-1,46,48,50,-1,52,-1,-1,-1,-1,-1,-1,-1,-1,-1,-1,-1,-1,-1,-1,-1,-1,-1,-1],"split_conditions":[5.48067E0,1.681845E0,6.1113157E0,9.1168314E-1,1.480729E0,-1.8409136E-1,6.576634E0,-2.2288058E0,1.5880734E-1,-1.0130254E0,1.0304228E-1,-6.772277E-4,4.0022794E-2,7.665304E-2,-1.5851398E-1,5.557111E-1,1.8815764E0,1.4063574E0,4.5541036E-1,1.6395245E-1,9.981326E-1,-4.282933E-3,3.9145138E-2,5.0168973E-1,3.363667E-3,-4.582513E-2,-6.914197E-1,-2.0502695E-1,-8.140532E-1,-1.1940874E-2,-1.2201957E0,-1.9938343E0,-1.1670028E-1,8.992373E-2,-8.254582E-1,1.2331591E-1,4.0642235E-2,6.6887634E-3,-2.3423642E-2,5.4683085E-3,4.81589E-2,5.620212E-2,-1.1982862E-2,-8.769586E-3,1.2403603E-1,1.6465439E-2,1.5512553E-1,6.0006226E-3,-4.5547437E-2,5.447511E-2,-4.607443E-3,-1.5466112E-3,2.30675E-2],"split_indices":[17,41,17,29,0,40,17,40,1,7,0,0,0,0,33,3,40,0,19,6,21,0,0,19,0,36,7,0,33,0,38,36,3,0,3,0,0,0,0,0,0,0,0,0,0,0,0,0,0,0,0,0,0],"split_type":[0,0,0,0,0,0,0,0,0,0,0,0,0,0,0,0,0,0,0,0,0,0,0,0,0,0,0,0,0,0,0,0,0,0,0,0,0,0,0,0,0,0,0,0,0,0,0,0,0,0,0,0,0],"sum_hessian":[2.960683E2,2.7831845E2,1.7749828E1,2.5826672E2,2.0051752E1,5.76967E0,1.1980159E1,2.1902505E2,3.924166E1,1.687463E1,3.1771228E0,1.3433099E0,4.42636E0,9.292901E0,2.6872573E0,5.9742837E0,2.1305077E2,3.379825E1,5.4434133E0,1.1192093E1,5.682537E0,1.2295479E0,1.4577093E0,4.393954E0,1.5803297E0,2.0317601E2,9.874755E0,3.0388517E1,3.4097314E0,1.2775111E0,4.165902E0,5.07222E0,6.1198735E0,3.021658E0,2.660879E0,1.7877318E0,2.606222E0,4.845942E1,1.547166E2,1.7643299E0,8.110425E0,3.3707602E0,2.7017757E1,1.2019932E0,2.2077382E0,1.0305401E0,3.1353621E0,1.3532376E0,3.7189822E0,3.3980746E0,2.7217987E0,1.3510511E0,1.3098278E0],"tree_param":{"num_deleted":"0","num_feature":"43","num_nodes":"53","size_leaf_vector":"1"}},{"base_weights":[8.159656E-3,-5.8698956E-2,1.1277573E0,-1.4231102E-1,8.3740044E-1,3.0407265E-1,1.2957563E0,-4.4756892E-1,7.138897E-2,3.5119626E-1,1.5319325E0,-2.9257094E-3,2.5286708E-2,7.80472E-2,6.881322E-1,-5.079871E-1,9.2540756E-2,9.6433413E-1,-2.3388015E-2,-3.9420523E-2,1.1885854E0,1.8055463E0,1.7606853E-2,9.931595E-1,-1.6379105E-3,-5.6420416E-1,7.242374E-2,-4.2043972E-1,1.427542E0,-2.0651306E-1,4.2669865E-1,8.839696E-1,-3.6589155E-1,7.821317E-3,7.447893E-2,3.7427098E-2,1.0652786E-1,5.8018483E-2,1.6275285E-2,3.111407E-2,-3.3303577E-2,1.9896217E-2,-3.976212E-2,1.328157E-1,2.653775E-2,4.6587687E-2,-1.6002635E-2,1.6220443E-2,1.024666E-1,-8.63824E-3,7.417075E-2,-3.34115E-2,4.5214914E-2],"categories":[],"categories_nodes":[],"categories_segments":[],"categories_sizes":[],"default_left":[0,0,0,0,0,0,0,0,0,0,0,0,0,0,0,0,0,0,0,0,0,0,0,0,0,0,0,0,0,0,0,0,0,0,0,0,0,0,0,0,0,0,0,0,0,0,0,0,0,0,0,0,0],"id":18,"left_children":[1,3,5,7,9,11,13,15,17,19,21,-1,-1,-1,23,25,-1,27,29,31,33,35,-1,37,-1,39,-1,41,43,45,47,49,51,-1,-1,-1,-1,-1,-1,-1,-1,-1,-1,-1,-1,-1,-1,-1,-1,-1,-1,-1,-1],"loss_changes":[2.210751E1,2.1009085E1,1.908947E0,1.6723406E1,7.546177E0,3.3128354E-1,1.1038265E0,1.5590656E1,1.283307E1,5.0774474E0,2.450447E0,0E0,0E0,0E0,1.3288217E0,1.22101555E1,0E0,9.932078E0,1.1447649E1,3.776752E0,1.296793E0,9.8807144E-1,0E0,8.830643E-2,0E0,1.26714325E1,0E0,1.6719028E0,1.0853987E1,1.3045928E1,6.0048914E0,2.3371396E0,4.1259475E0,0E0,0E0,0E0,0E0,0E0,0E0,0E0,0E0,0E0,0E0,0E0,0E0,0E0,0E0,0E0,0E0,0E0,0E0,0E0,0E0],"parents":[2147483647,0,0,1,1,2,2,3,3,4,4,5,5,6,6,7,7,8,8,9,9,10,10,14,14,15,15,17,17,18,18,19,19,20,20,21,21,23,23,25,25,27,27,28,28,29,29,30,30,31,31,32,32],"right_children":[2,4,6,8,10,12,14,16,18,20,22,-1,-1,-1,24,26,-1,28,30,32,34,36,-1,38,-1,40,-1,42,44,46,48,50,52,-1,-1,-1,-1,-1,-1,-1,-1,-1,-1,-1,-1,-1,-1,-1,-1,-1,-1,-1,-1],"split_conditions":[5.5513344E0,1.681845E0,-1.6796024E0,1.3215075E-1,8.4676784E-1,5.681997E0,6.5513015E0,1.585693E0,-1.1327516E0,9.918698E-1,1.0725176E0,-2.9257094E-3,2.5286708E-2,7.80472E-2,-8.168796E-1,9.40981E0,9.2540756E-2,4.3053117E-1,5.6499696E-1,-9.526712E-1,1.5988699E0,-9.657778E-1,1.7606853E-2,-6.0720927E-1,-1.6379105E-3,-1.5010683E-2,7.242374E-2,-7.999996E-1,6.2583005E-1,-1.3784453E0,1.1243547E0,9.191334E-2,2.556225E0,7.821317E-3,7.447893E-2,3.7427098E-2,1.0652786E-1,5.8018483E-2,1.6275285E-2,3.111407E-2,-3.3303577E-2,1.9896217E-2,-3.976212E-2,1.328157E-1,2.653775E-2,4.6587687E-2,-1.6002635E-2,1.6220443E-2,1.024666E-1,-8.63824E-3,7.417075E-2,-3.34115E-2,4.5214914E-2],"split_indices":[17,41,3,35,21,17,17,29,6,3,13,0,0,0,34,27,0,1,40,3,37,4,0,37,0,36,0,0,9,0,37,6,37,0,0,0,0,0,0,0,0,0,0,0,0,0,0,0,0,0,0,0,0],"split_type":[0,0,0,0,0,0,0,0,0,0,0,0,0,0,0,0,0,0,0,0,0,0,0,0,0,0,0,0,0,0,0,0,0,0,0,0,0,0,0,0,0,0,0,0,0,0,0,0,0,0,0,0,0],"sum_hessian":[2.9345447E2,2.7781204E2,1.564243E1,2.5487196E2,2.294007E1,3.1259809E0,1.2516449E1,1.0450224E2,1.5036972E2,1.4379454E1,8.560616E0,1.3709166E0,1.7550642E0,7.6213183E0,4.8951306E0,1.02584564E2,1.917682E0,1.3548376E1,1.3682135E2,1.0455297E1,3.9241562E0,6.518484E0,2.0421314E0,3.174313E0,1.7208177E0,1.00410965E2,2.1735957E0,3.419126E0,1.012925E1,9.763723E1,3.9184116E1,2.284936E0,8.170361E0,1.2290897E0,2.6950665E0,2.309765E0,4.208719E0,1.948373E0,1.2259402E0,7.535346E0,9.287562E1,1.0546522E0,2.3644738E0,3.4458008E0,6.6834493E0,8.202132E0,8.94351E1,3.7989227E1,1.1948895E0,1.0846498E0,1.2002863E0,6.982303E0,1.1880579E0],"tree_param":{"num_deleted":"0","num_feature":"43","num_nodes":"53","size_leaf_vector":"1"}},{"base_weights":[6.248918E-3,-4.5451317E-2,1.2013482E0,-1.0925823E-1,7.109136E-1,1.2513659E-2,1.3323131E0,-6.451842E-1,-3.959702E-3,4.219312E-1,1.07528806E-1,7.214513E-2,1.3248341E-2,2.7852805E-2,-9.147708E-1,-7.079602E-2,1.0871403E0,1.45419E-1,8.4939614E-2,6.757509E-2,-2.0043406E-1,-2.0463194E-1,-1.024421E0,-1.3389279E-1,8.2555324E-1,1.4383202E0,-2.5221905E-1,-2.7390486E-1,6.0731333E-1,-2.3928067E-2,3.2830395E-2,2.0644197E-2,-2.966911E-2,-5.272652E-2,-8.0101555E-3,9.861349E-3,-1.6354157E-2,5.843938E-2,4.8442353E-3,1.14639215E-1,1.4817645E-2,-3.411816E-2,1.9356048E-2,-2.9636985E-2,1.6903916E-2,4.404842E-2,-3.099005E-2],"categories":[],"categories_nodes":[],"categories_segments":[],"categories_sizes":[],"default_left":[0,0,0,0,0,0,0,0,0,0,0,0,0,0,0,0,0,0,0,0,0,0,0,0,0,0,0,0,0,0,0,0,0,0,0,0,0,0,0,0,0,0,0,0,0,0,0],"id":19,"left_children":[1,3,5,7,9,-1,11,13,15,17,-1,-1,-1,19,21,23,25,27,-1,-1,29,31,33,35,37,39,41,43,45,-1,-1,-1,-1,-1,-1,-1,-1,-1,-1,-1,-1,-1,-1,-1,-1,-1,-1],"loss_changes":[1.7848127E1,1.3446252E1,1.1585083E0,1.4462194E1,8.113662E0,0E0,8.331051E-1,7.661539E0,1.5773023E1,6.568061E0,0E0,0E0,0E0,4.201152E0,2.1325054E0,1.1634013E1,6.2349596E0,3.451243E0,0E0,0E0,3.1661212E0,1.5107772E0,5.025654E-1,1.2296162E1,3.272912E0,9.117558E0,1.211356E0,2.069444E0,3.3604946E0,0E0,0E0,0E0,0E0,0E0,0E0,0E0,0E0,0E0,0E0,0E0,0E0,0E0,0E0,0E0,0E0,0E0,0E0],"parents":[2147483647,0,0,1,1,2,2,3,3,4,4,6,6,7,7,8,8,9,9,13,13,14,14,15,15,16,16,17,17,20,20,21,21,22,22,23,23,24,24,25,25,26,26,27,27,28,28],"right_children":[2,4,6,8,10,-1,12,14,16,18,-1,-1,-1,20,22,24,26,28,-1,-1,30,32,34,36,38,40,42,44,46,-1,-1,-1,-1,-1,-1,-1,-1,-1,-1,-1,-1,-1,-1,-1,-1,-1,-1],"split_conditions":[5.724662E0,1.681845E0,-1.4003619E0,-5.3516215E-1,5.0932807E-1,1.2513659E-2,1.2128086E0,-9.7084445E-1,1.127974E0,1.480729E0,1.07528806E-1,7.214513E-2,1.3248341E-2,-3.2901987E-1,6.269532E-2,1.5218744E0,7.0845896E-1,-1.0878401E0,8.4939614E-2,6.757509E-2,8.975032E-1,6.0679026E-2,1.3659542E0,2.5696033E-1,3.2865247E-1,6.050767E-1,7.5732505E-1,1.0044088E0,3.5208318E-1,-2.3928067E-2,3.2830395E-2,2.0644197E-2,-2.966911E-2,-5.272652E-2,-8.0101555E-3,9.861349E-3,-1.6354157E-2,5.843938E-2,4.8442353E-3,1.14639215E-1,1.4817645E-2,-3.411816E-2,1.9356048E-2,-2.9636985E-2,1.6903916E-2,4.404842E-2,-3.099005E-2],"split_indices":[17,41,4,42,9,0,13,3,29,0,0,0,0,40,36,40,36,7,0,0,37,5,34,36,39,9,21,6,36,0,0,0,0,0,0,0,0,0,0,0,0,0,0,0,0,0,0],"split_type":[0,0,0,0,0,0,0,0,0,0,0,0,0,0,0,0,0,0,0,0,0,0,0,0,0,0,0,0,0,0,0,0,0,0,0,0,0,0,0,0,0,0,0,0,0,0,0],"sum_hessian":[2.869821E2,2.7600406E2,1.0978024E1,2.5532077E2,2.06833E1,1.6810602E0,9.296964E0,4.1085476E1,2.1423529E2,1.8302525E1,2.3807755E0,8.105301E0,1.1916624E0,1.2006729E1,2.9078749E1,2.0275073E2,1.1484564E1,1.5960144E1,2.3423805E0,1.0424165E0,1.0964313E1,4.2727737E0,2.4805975E1,1.9021176E2,1.2538963E1,9.04031E0,2.4442549E0,8.578908E0,7.381237E0,8.611364E0,2.352948E0,1.626715E0,2.6460588E0,2.3758028E1,1.047946E0,7.007883E1,1.20132935E2,8.113262E0,4.4257016E0,4.5946593E0,4.44565E0,1.4209529E0,1.0233018E0,5.661032E0,2.9178753E0,6.2659645E0,1.1152725E0],"tree_param":{"num_deleted":"0","num_feature":"43","num_nodes":"47","size_leaf_vector":"1"}},{"base_weights":[2.111194E-2,-4.5605544E-2,1.0952897E0,-1.1941504E-1,9.1889024E-1,1.2854049E0,4.9171147E-1,5.71828E-1,-2.0857298E-1,1.0249207E0,-1.3793254E-2,6.877441E-2,1.2938097E-2,2.8369054E-2,5.0755027E-3,1.2319262E-1,1.4586834E0,-2.7888298E-1,5.874696E-1,1.1368663E0,1.9376731E-1,5.939168E-1,-3.0569726E-1,1.2169903E-1,5.668464E-1,-3.2377246E-1,7.036508E-1,9.413619E-2,2.179908E0,1.2471358E0,1.0548065E-2,3.6177274E-2,-1.8026019E-2,6.721148E-2,1.3485766E-2,8.594918E-3,-3.421895E-2,-3.6548693E-2,6.150132E-2,2.5798172E-2,-1.9117083E-2,3.276138E-3,7.635074E-2,-2.0884162E-2,5.1595777E-2,1.7024804E-2,1.3347717E-1,3.4435447E-2,6.952617E-2],"categories":[],"categories_nodes":[],"categories_segments":[],"categories_sizes":[],"default_left":[0,0,0,0,0,0,0,0,0,0,0,0,0,0,0,0,0,0,0,0,0,0,0,0,0,0,0,0,0,0,0,0,0,0,0,0,0,0,0,0,0,0,0,0,0,0,0,0,0],"id":20,"left_children":[1,3,5,7,9,11,13,15,17,19,-1,-1,-1,-1,-1,21,23,25,27,29,31,33,35,-1,37,39,41,43,45,47,-1,-1,-1,-1,-1,-1,-1,-1,-1,-1,-1,-1,-1,-1,-1,-1,-1,-1,-1],"loss_changes":[2.0953207E1,1.9727818E1,1.329771E0,1.59502945E1,2.7789612E0,7.891903E-1,1.11139655E-1,1.1602978E1,1.293942E1,1.4834175E0,0E0,0E0,0E0,0E0,0E0,4.3723574E0,7.1931934E0,9.508148E0,1.4600697E1,1.3635254E0,1.2530764E0,2.1274076E0,2.2014413E0,0E0,6.452206E0,1.0127443E1,4.8957295E0,7.8389435E0,3.0651226E0,1.659584E-1,0E0,0E0,0E0,0E0,0E0,0E0,0E0,0E0,0E0,0E0,0E0,0E0,0E0,0E0,0E0,0E0,0E0,0E0,0E0],"parents":[2147483647,0,0,1,1,2,2,3,3,4,4,5,5,6,6,7,7,8,8,9,9,15,15,16,16,17,17,18,18,19,19,20,20,21,21,22,22,24,24,25,25,26,26,27,27,28,28,29,29],"right_children":[2,4,6,8,10,12,14,16,18,20,-1,-1,-1,-1,-1,22,24,26,28,30,32,34,36,-1,38,40,42,44,46,48,-1,-1,-1,-1,-1,-1,-1,-1,-1,-1,-1,-1,-1,-1,-1,-1,-1,-1,-1],"split_conditions":[5.554001E0,1.5218744E0,1.0621552E0,-1.6752836E0,1.5708857E0,6.0001874E-1,5.724662E0,4.0681288E-3,1.0365407E0,6.320928E-1,-1.3793254E-2,6.877441E-2,1.2938097E-2,2.8369054E-2,5.0755027E-3,-1.1670028E-1,1.0884544E0,1.9058607E0,4.9406725E-1,5.2891296E-1,4.08042E-1,3.2637247E-1,-7.89228E-1,1.2169903E-1,1.2565457E0,-1.6069093E0,1.4559385E0,8.0089974E-1,2.971531E-1,-3.9143348E-1,1.0548065E-2,3.6177274E-2,-1.8026019E-2,6.721148E-2,1.3485766E-2,8.594918E-3,-3.421895E-2,-3.6548693E-2,6.150132E-2,2.5798172E-2,-1.9117083E-2,3.276138E-3,7.635074E-2,-2.0884162E-2,5.1595777E-2,1.7024804E-2,1.3347717E-1,3.4435447E-2,6.952617E-2],"split_indices":[17,40,36,40,2,25,17,5,29,36,0,0,0,0,0,3,6,41,19,19,19,19,4,0,6,3,0,21,36,1,0,0,0,0,0,0,0,0,0,0,0,0,0,0,0,0,0,0,0],"split_type":[0,0,0,0,0,0,0,0,0,0,0,0,0,0,0,0,0,0,0,0,0,0,0,0,0,0,0,0,0,0,0,0,0,0,0,0,0,0,0,0,0,0,0,0,0,0,0,0,0],"sum_hessian":[2.9067426E2,2.745777E2,1.6096554E1,2.5587285E2,1.8704866E1,1.1381853E1,4.714701E0,2.861404E1,2.272588E2,1.7310747E1,1.3941208E0,1.0151329E1,1.2305242E0,3.5685914E0,1.1461098E0,1.9757954E1,8.856088E0,2.0941225E2,1.7846548E1,1.4931808E1,2.3789382E0,9.236138E0,1.0521815E1,3.404171E0,5.451917E0,2.0090393E2,8.508323E0,1.4434034E1,3.412513E0,1.3032753E1,1.8990552E0,1.0602292E0,1.318709E0,1.8374268E0,7.3987117E0,4.894678E0,5.6271367E0,1.809183E0,3.642734E0,1.2589694E1,1.8831424E2,5.4015574E0,3.106765E0,9.696501E0,4.7375336E0,1.0738375E0,2.3386755E0,3.848357E0,9.184396E0],"tree_param":{"num_deleted":"0","num_feature":"43","num_nodes":"49","size_leaf_vector":"1"}},{"base_weights":[4.1266985E-2,-2.1063268E-2,1.1106585E0,-7.99787E-2,8.9148265E-1,1.2293471E0,3.8292417E-1,-1.1712995E-1,1.5620662E0,5.706428E-1,1.0240876E-1,1.2974544E0,1.8566368E-2,-6.0886475E-3,3.447161E-2,-1.5734725E-1,1.2438332E0,1.0893137E-2,9.265449E-2,-2.2639637E-1,8.7767434E-1,1.6859336E-2,6.851012E-2,1.0671883E0,-2.048176E-1,7.0299454E-2,1.23674655E-2,-4.2004477E-2,3.688374E-2,1.2952146E-1,1.3059423E0,1.1660545E-2,9.5556706E-2,-2.2091107E-2,-3.2437828E-4,-1.5379568E-2,3.1329684E-2,8.494644E-2,2.0614754E-2],"categories":[],"categories_nodes":[],"categories_segments":[],"categories_sizes":[],"default_left":[0,0,0,0,0,0,0,0,0,0,0,0,0,0,0,0,0,0,0,0,0,0,0,0,0,0,0,0,0,0,0,0,0,0,0,0,0,0,0],"id":21,"left_children":[1,3,5,7,9,11,13,15,17,19,-1,21,-1,-1,-1,23,25,-1,-1,27,29,-1,-1,31,33,-1,-1,-1,-1,35,37,-1,-1,-1,-1,-1,-1,-1,-1],"loss_changes":[1.918397E1,1.4727455E1,8.9831924E-1,1.5860491E1,4.99722E0,2.8816032E-1,6.5245605E-1,1.4001673E1,1.8478203E0,3.7209616E0,0E0,3.626976E-1,0E0,0E0,0E0,1.45116E1,8.4022236E-1,0E0,0E0,3.4581635E0,3.225812E0,0E0,0E0,6.1261463E0,1.1163051E1,0E0,0E0,0E0,0E0,1.2720305E0,1.6273384E0,0E0,0E0,0E0,0E0,0E0,0E0,0E0,0E0],"parents":[2147483647,0,0,1,1,2,2,3,3,4,4,5,5,6,6,7,7,8,8,9,9,11,11,15,15,16,16,19,19,20,20,23,23,24,24,29,29,30,30],"right_children":[2,4,6,8,10,12,14,16,18,20,-1,22,-1,-1,-1,24,26,-1,-1,28,30,-1,-1,32,34,-1,-1,-1,-1,36,38,-1,-1,-1,-1,-1,-1,-1,-1],"split_conditions":[5.615332E0,1.5988699E0,6.585967E0,1.6294721E0,5.678149E-1,1.9815028E0,-1.5851398E-1,9.604039E0,-1.2820861E0,1.6904429E0,1.0240876E-1,-1.6312348E0,1.8566368E-2,-6.0886475E-3,3.447161E-2,-2.124038E0,5.2891296E-1,1.0893137E-2,9.265449E-2,2.871226E-1,-1.0062242E0,1.6859336E-2,6.851012E-2,-5.254277E-2,2.2525673E-1,7.0299454E-2,1.23674655E-2,-4.2004477E-2,3.688374E-2,1.7831002E-1,-1.0125631E0,1.1660545E-2,9.5556706E-2,-2.2091107E-2,-3.2437828E-4,-1.5379568E-2,3.1329684E-2,8.494644E-2,2.0614754E-2],"split_indices":[17,37,17,0,9,7,33,27,38,37,0,4,0,0,0,40,19,0,0,5,7,0,0,5,42,0,0,0,0,33,38,0,0,0,0,0,0,0,0],"split_type":[0,0,0,0,0,0,0,0,0,0,0,0,0,0,0,0,0,0,0,0,0,0,0,0,0,0,0,0,0,0,0,0,0,0,0,0,0,0,0],"sum_hessian":[2.8645703E2,2.7160657E2,1.485048E1,2.5599168E2,1.5614876E1,1.2175464E1,2.6750164E0,2.5123613E2,4.755547E0,1.339324E1,2.2216365E0,1.0805595E1,1.3698684E0,1.2384647E0,1.4365518E0,2.4488405E2,6.3520894E0,1.1575532E0,3.5979939E0,3.797567E0,9.595673E0,1.1577955E0,9.6477995E0,8.337234E0,2.3654681E2,5.1096554E0,1.2424339E0,2.3990316E0,1.3985353E0,3.9673803E0,5.6282926E0,4.8353405E0,3.5018928E0,1.0720683E2,1.2933998E2,2.3138406E0,1.6535397E0,3.2833173E0,2.3449752E0],"tree_param":{"num_deleted":"0","num_feature":"43","num_nodes":"39","size_leaf_vector":"1"}},{"base_weights":[5.3771738E-2,4.630426E-1,-9.2186764E-2,-7.516883E-2,1.2049818E0,-2.1902667E-1,7.3458594E-1,-7.796228E-1,1.5609027E-1,5.2713346E-1,1.5225184E0,1.0180961E-1,-2.5239307E-1,1.0342133E0,9.2208296E-2,-5.0141968E-2,1.0522272E-2,8.900325E-2,3.14034E-2,-1.3493723E-2,1.0324558E0,1.6634178E0,2.7371046E-1,-3.0526236E-1,1.2588766E0,7.4032795E-1,1.7921641E0,8.696359E-1,-3.535634E-1,1.2488725E0,-1.4083959E-1,-2.4231039E-2,2.3496449E-1,1.1154621E-2,6.140047E-2,9.324407E-2,5.1047426E-1,4.131604E-2,-1.8118918E-2,-5.6755245E-1,-6.116481E-2,1.05039375E-2,7.3713735E-2,-4.1485E-2,1.1903943E0,1.214404E-1,-7.7057667E-3,8.083575E-2,-1.3581966E-2,-7.573748E-1,4.0846985E-2,-2.98002E-2,1.0578827E-1,2.8609494E-2,-2.4104923E-2,-9.645537E-3,1.9643473E-2,4.1623082E-2,-6.786124E-3,-3.193428E-2,5.5936933E-2,-1.2748623E-2,4.5696814E-2,-2.0404667E-2,7.57844E-2,-4.428229E-2,-3.984957E-3],"categories":[],"categories_nodes":[],"categories_segments":[],"categories_sizes":[],"default_left":[0,0,0,0,0,0,0,0,0,0,0,0,0,0,0,0,0,0,0,0,0,0,0,0,0,0,0,0,0,0,0,0,0,0,0,0,0,0,0,0,0,0,0,0,0,0,0,0,0,0,0,0,0,0,0,0,0,0,0,0,0,0,0,0,0,0,0],"id":22,"left_children":[1,3,5,7,9,11,13,15,17,19,21,-1,23,25,27,-1,-1,-1,29,31,33,35,37,39,41,43,45,47,49,51,53,-1,55,-1,-1,-1,57,-1,-1,59,61,-1,-1,-1,63,-1,-1,-1,-1,65,-1,-1,-1,-1,-1,-1,-1,-1,-1,-1,-1,-1,-1,-1,-1,-1,-1],"loss_changes":[1.7049551E1,3.0042496E1,2.2255535E1,7.357139E0,5.997753E0,1.4317282E1,5.3427153E0,2.6737447E0,6.883359E0,3.185217E0,3.2372513E0,0E0,1.4898251E1,2.9431133E0,3.8023498E0,0E0,0E0,0E0,7.063355E0,8.858889E-1,6.777377E-1,3.3825188E0,1.4680822E0,1.1253868E1,1.1214561E0,1.195222E1,6.1385593E0,3.8191273E0,3.9842875E0,7.9335103E0,7.495911E0,0E0,4.1303766E-1,0E0,0E0,0E0,9.770142E-1,0E0,0E0,1.0894844E1,1.7703756E1,0E0,0E0,0E0,7.102974E0,0E0,0E0,0E0,0E0,4.3471265E-1,0E0,0E0,0E0,0E0,0E0,0E0,0E0,0E0,0E0,0E0,0E0,0E0,0E0,0E0,0E0,0E0,0E0],"parents":[2147483647,0,0,1,1,2,2,3,3,4,4,5,5,6,6,7,7,8,8,9,9,10,10,12,12,13,13,14,14,18,18,19,19,20,20,21,21,22,22,23,23,24,24,25,25,26,26,27,27,28,28,29,29,30,30,32,32,36,36,39,39,40,40,44,44,49,49],"right_children":[2,4,6,8,10,12,14,16,18,20,22,-1,24,26,28,-1,-1,-1,30,32,34,36,38,40,42,44,46,48,50,52,54,-1,56,-1,-1,-1,58,-1,-1,60,62,-1,-1,-1,64,-1,-1,-1,-1,66,-1,-1,-1,-1,-1,-1,-1,-1,-1,-1,-1,-1,-1,-1,-1,-1,-1],"split_conditions":[2.931602E-1,-6.634539E-1,8.6798185E-1,-7.544793E-1,-4.5912033E-1,-2.1157522E0,7.042458E-1,1.1832426E0,-1.1087385E0,5.6779966E0,8.2516986E-1,1.0180961E-1,9.40981E0,7.6831794E-1,-3.8290378E-1,-5.0141968E-2,1.0522272E-2,8.900325E-2,-1.6752836E0,-7.2132427E-1,-1.0170316E0,6.572634E0,-1.0195507E0,1.2485259E-1,-1.5225887E0,8.581265E-1,6.64408E-1,-7.026752E-1,1.186791E0,-1.7508698E0,1.6944365E-1,-2.4231039E-2,-7.866383E-1,1.1154621E-2,6.140047E-2,9.324407E-2,8.4495604E-1,4.131604E-2,-1.8118918E-2,1.4881825E0,9.031199E-1,1.05039375E-2,7.3713735E-2,-4.1485E-2,-3.7867707E-1,1.214404E-1,-7.7057667E-3,8.083575E-2,-1.3581966E-2,7.324398E-1,4.0846985E-2,-2.98002E-2,1.0578827E-1,2.8609494E-2,-2.4104923E-2,-9.645537E-3,1.9643473E-2,4.1623082E-2,-6.786124E-3,-3.193428E-2,5.5936933E-2,-1.2748623E-2,4.5696814E-2,-2.0404667E-2,7.57844E-2,-4.428229E-2,-3.984957E-3],"split_indices":[19,36,21,34,33,36,6,0,6,17,40,0,27,29,41,0,0,0,40,4,34,17,38,35,4,38,37,34,37,5,29,0,7,0,0,0,41,0,0,29,29,0,0,0,41,0,0,0,0,33,0,0,0,0,0,0,0,0,0,0,0,0,0,0,0,0,0],"split_type":[0,0,0,0,0,0,0,0,0,0,0,0,0,0,0,0,0,0,0,0,0,0,0,0,0,0,0,0,0,0,0,0,0,0,0,0,0,0,0,0,0,0,0,0,0,0,0,0,0,0,0,0,0,0,0,0,0,0,0,0,0,0,0,0,0,0,0],"sum_hessian":[2.8369778E2,7.4007286E1,2.0969049E2,4.3413387E1,3.0593897E1,1.8243689E2,2.72536E1,1.0143471E1,3.3269917E1,1.0608311E1,1.9985586E1,1.7847003E0,1.8065219E2,1.8168978E1,9.084621E0,8.266779E0,1.8766917E0,1.42563E0,3.1844288E1,5.595341E0,5.0129695E0,1.7660948E1,2.324639E0,1.7531702E2,5.335168E0,1.4516967E1,3.6520102E0,2.9641964E0,6.120425E0,3.1721144E0,2.8672174E1,1.6037654E0,3.991576E0,1.3921052E0,3.6208642E0,1.4508295E1,3.1526518E0,1.0839117E0,1.2407274E0,8.387054E1,9.144649E1,1.2455834E0,4.089585E0,3.046375E0,1.14705925E1,2.565041E0,1.0869693E0,1.5397134E0,1.4244832E0,4.812955E0,1.3074703E0,1.1139488E0,2.0581656E0,9.061755E0,1.9610418E1,1.0162239E0,2.975352E0,1.9117938E0,1.240858E0,8.107191E1,2.798623E0,7.690053E1,1.454596E1,1.8965309E0,9.574061E0,3.788901E0,1.0240538E0],"tree_param":{"num_deleted":"0","num_feature":"43","num_nodes":"67","size_leaf_vector":"1"}},{"base_weights":[6.376539E-2,2.9748206E-3,1.2481015E0,-5.4261E-2,8.210015E-1,1.3649831E0,1.7649008E-2,6.4330816E-1,-1.3633707E-1,-2.3861693E-2,9.587924E-1,1.8481733E-2,7.197553E-2,2.179105E-1,1.421017E0,-1.5864402E-1,1.00230515E-1,1.381073E0,4.7867942E-1,-7.978946E-2,7.7036124E-1,2.019727E-1,2.0720973E0,-4.3133572E-1,3.6709122E-2,7.917153E-2,1.7919658E-2,8.979924E-1,-2.796472E-1,-2.143783E-2,2.930575E-2,7.2513595E-2,1.7097809E-3,-2.4596585E-2,5.3023707E-2,1.2325628E-1,1.16954455E-2,-2.8224407E-2,3.3044513E-2,-6.0883444E-3,3.4223076E-2,1.9039748E-3,5.5758383E-2,-3.5178583E-2,9.609985E-3],"categories":[],"categories_nodes":[],"categories_segments":[],"categories_sizes":[],"default_left":[0,0,0,0,0,0,0,0,0,0,0,0,0,0,0,0,0,0,0,0,0,0,0,0,0,0,0,0,0,0,0,0,0,0,0,0,0,0,0,0,0,0,0,0,0],"id":23,"left_children":[1,3,5,7,9,11,-1,13,15,-1,17,-1,-1,19,21,23,-1,25,27,29,31,33,35,37,39,-1,-1,41,43,-1,-1,-1,-1,-1,-1,-1,-1,-1,-1,-1,-1,-1,-1,-1,-1],"loss_changes":[2.0739433E1,1.2922472E1,9.896202E-1,1.4859231E1,3.686123E0,3.648262E-1,0E0,8.733924E0,1.1381896E1,0E0,2.7143202E0,0E0,0E0,3.1618397E0,7.109108E0,1.2279032E1,0E0,1.1558428E0,3.2150872E0,3.3085303E0,3.3014722E0,3.1487532E0,3.8118534E0,1.4357996E1,1.3945869E1,0E0,0E0,1.1228352E0,9.5164156E-1,0E0,0E0,0E0,0E0,0E0,0E0,0E0,0E0,0E0,0E0,0E0,0E0,0E0,0E0,0E0,0E0],"parents":[2147483647,0,0,1,1,2,2,3,3,4,4,5,5,7,7,8,8,10,10,13,13,14,14,15,15,17,17,18,18,19,19,20,20,21,21,22,22,23,23,24,24,27,27,28,28],"right_children":[2,4,6,8,10,12,-1,14,16,-1,18,-1,-1,20,22,24,-1,26,28,30,32,34,36,38,40,-1,-1,42,44,-1,-1,-1,-1,-1,-1,-1,-1,-1,-1,-1,-1,-1,-1,-1,-1],"split_conditions":[5.6259985E0,1.5812427E0,1.1832426E0,-1.8097353E0,-1.4362898E0,-1.3449748E0,1.7649008E-2,-5.254277E-2,1.585693E0,-2.3861693E-2,3.6840552E-1,1.8481733E-2,7.197553E-2,6.464692E-1,-3.5464388E-1,1.2485259E-1,1.00230515E-1,5.2891296E-1,4.1237232E-1,-1.9564099E0,-3.4449312E-1,7.034657E-1,1.5452461E0,1.681845E0,7.942839E-1,7.917153E-2,1.7919658E-2,-1.2609499E0,5.420979E-1,-2.143783E-2,2.930575E-2,7.2513595E-2,1.7097809E-3,-2.4596585E-2,5.3023707E-2,1.2325628E-1,1.16954455E-2,-2.8224407E-2,3.3044513E-2,-6.0883444E-3,3.4223076E-2,1.9039748E-3,5.5758383E-2,-3.5178583E-2,9.609985E-3],"split_indices":[17,40,0,40,0,38,0,5,29,0,25,0,0,42,4,35,0,19,36,40,2,33,7,41,29,0,0,1,42,0,0,0,0,0,0,0,0,0,0,0,0,0,0,0,0],"split_type":[0,0,0,0,0,0,0,0,0,0,0,0,0,0,0,0,0,0,0,0,0,0,0,0,0,0,0,0,0,0,0,0,0,0,0,0,0,0,0,0,0,0,0,0,0],"sum_hessian":[2.8711334E2,2.7404926E2,1.3064112E1,2.5700104E2,1.7048218E1,1.1090981E1,1.9731318E0,2.6335573E1,2.3066545E2,1.3994491E0,1.5648769E1,1.1877503E0,9.90323E0,1.785131E1,8.484262E0,2.2920325E2,1.4622126E0,7.3274207E0,8.321348E0,1.2156235E1,5.6950765E0,3.4099271E0,5.0743356E0,9.516095E1,1.340423E2,5.659301E0,1.66812E0,5.239833E0,3.0815158E0,8.209944E0,3.9462907E0,2.4563744E0,3.238702E0,2.121866E0,1.2880611E0,3.8995075E0,1.1748278E0,8.525121E1,9.909732E0,1.0834672E2,2.5695576E1,1.2935033E0,3.9463296E0,1.3644986E0,1.7170172E0],"tree_param":{"num_deleted":"0","num_feature":"43","num_nodes":"45","size_leaf_vector":"1"}},{"base_weights":[5.3475417E-2,4.6524912E-1,-1.05382E-1,-1.3321772E-1,1.1591252E0,-1.3616306E-1,1.224305E-1,-7.607133E-1,7.052147E-2,-6.263527E-2,1.3585945E0,-1.9529437E-1,1.1456517E0,-8.9971733E-1,1.3529963E-2,-1.6233896E-1,5.971925E-1,-5.0481313E-1,3.809518E-2,1.7402071E0,8.826074E-1,-2.5402462E-1,9.4672596E-1,1.297913E0,6.4930655E-3,-2.9380077E-3,-4.9501576E-2,-3.3163288E-1,7.614817E-1,-2.1960217E-1,1.1485112E0,-4.2775612E-2,1.862386E-2,1.1758284E-2,1.8274432E0,9.5929E-1,-2.840232E-4,-3.688842E-1,2.550846E-1,7.874693E-3,5.7279985E-2,1.6630162E-2,7.121721E-2,2.9722054E-2,-2.80083E-2,6.954089E-2,-2.8389066E-2,-4.0676907E-2,2.870505E-2,9.2651926E-2,6.5097556E-4,3.0131618E-2,9.87687E-2,1.9743865E-2,5.5053324E-2,2.8010586E-2,-2.1437302E-2,-3.37892E-2,3.9670598E-2],"categories":[],"categories_nodes":[],"categories_segments":[],"categories_sizes":[],"default_left":[0,0,0,0,0,0,0,0,0,0,0,0,0,0,0,0,0,0,0,0,0,0,0,0,0,0,0,0,0,0,0,0,0,0,0,0,0,0,0,0,0,0,0,0,0,0,0,0,0,0,0,0,0,0,0,0,0,0,0],"id":24,"left_children":[1,3,5,7,9,11,-1,13,15,17,19,21,23,25,-1,27,29,31,-1,33,35,37,39,41,-1,-1,-1,43,45,47,49,-1,-1,-1,51,53,-1,55,57,-1,-1,-1,-1,-1,-1,-1,-1,-1,-1,-1,-1,-1,-1,-1,-1,-1,-1,-1,-1],"loss_changes":[1.8645119E1,3.3095795E1,1.652481E1,5.6134553E0,9.062721E0,1.5720398E1,0E0,1.7836947E0,4.2353964E0,2.618178E0,4.224346E0,1.3406057E1,1.2484016E0,6.7848015E-1,0E0,4.0350304E0,5.0071974E0,1.7305835E0,0E0,1.7460213E0,1.1048679E0,1.1057191E1,1.3597164E0,4.8504257E-1,0E0,0E0,0E0,4.806217E0,4.176899E0,2.8687046E0,5.14748E0,0E0,0E0,0E0,1.620903E0,7.5460625E-1,0E0,8.770655E0,1.8126373E1,0E0,0E0,0E0,0E0,0E0,0E0,0E0,0E0,0E0,0E0,0E0,0E0,0E0,0E0,0E0,0E0,0E0,0E0,0E0,0E0],"parents":[2147483647,0,0,1,1,2,2,3,3,4,4,5,5,7,7,8,8,9,9,10,10,11,11,12,12,13,13,15,15,16,16,17,17,19,19,20,20,21,21,22,22,23,23,27,27,28,28,29,29,30,30,34,34,35,35,37,37,38,38],"right_children":[2,4,6,8,10,12,-1,14,16,18,20,22,24,26,-1,28,30,32,-1,34,36,38,40,42,-1,-1,-1,44,46,48,50,-1,-1,-1,52,54,-1,56,58,-1,-1,-1,-1,-1,-1,-1,-1,-1,-1,-1,-1,-1,-1,-1,-1,-1,-1,-1,-1],"split_conditions":[3.2637247E-1,-6.634539E-1,1.121053E0,-7.30932E-1,-1.3718047E0,1.9629214E0,1.224305E-1,1.2380276E0,2.4264957E-1,5.5286684E0,4.4820356E0,1.9863441E0,5.2479416E-1,-1.0151258E0,1.3529963E-2,6.446968E-1,5.225348E-1,1.1340133E0,3.809518E-2,-1.5932965E0,-1.0434979E0,9.18589E-1,-4.361284E-1,1.1226639E-1,6.4930655E-3,-2.9380077E-3,-4.9501576E-2,1.6944365E-1,8.152025E-1,-2.0568027E0,1.3532875E0,-4.2775612E-2,1.862386E-2,1.1758284E-2,-1.3460389E0,-1.1287469E0,-2.840232E-4,-2.0961E0,4.4561002E-1,7.874693E-3,5.7279985E-2,1.6630162E-2,7.121721E-2,2.9722054E-2,-2.80083E-2,6.954089E-2,-2.8389066E-2,-4.0676907E-2,2.870505E-2,9.2651926E-2,6.5097556E-4,3.0131618E-2,9.87687E-2,1.9743865E-2,5.5053324E-2,2.8010586E-2,-2.1437302E-2,-3.37892E-2,3.9670598E-2],"split_indices":[19,36,35,34,33,41,0,39,41,17,17,40,2,37,0,9,9,34,0,0,19,29,4,36,0,0,0,29,38,36,37,0,0,0,4,4,0,40,19,0,0,0,0,0,0,0,0,0,0,0,0,0,0,0,0,0,0,0,0],"split_type":[0,0,0,0,0,0,0,0,0,0,0,0,0,0,0,0,0,0,0,0,0,0,0,0,0,0,0,0,0,0,0,0,0,0,0,0,0,0,0,0,0,0,0,0,0,0,0,0,0,0,0,0,0,0,0,0,0,0,0],"sum_hessian":[2.8328604E2,7.8326775E1,2.0495926E2,4.2488518E1,3.583826E1,2.0345389E2,1.5053676E0,9.7440605E0,3.2744457E1,5.126172E0,3.0712086E1,1.9529251E2,8.161382E0,8.699157E0,1.0449041E0,2.31852E1,9.559256E0,3.5891638E0,1.5370084E0,1.5571764E1,1.5140323E1,1.8648003E2,8.812475E0,6.855973E0,1.3054091E0,1.0037149E0,7.6954417E0,2.0136183E1,3.0490177E0,4.0946255E0,5.46463E0,2.5818763E0,1.0072876E0,1.0556093E0,1.4516154E1,1.3863598E1,1.2767246E0,1.523777E2,3.4102333E1,2.1343234E0,6.678152E0,1.2144301E0,5.6415424E0,3.6686738E0,1.6467508E1,2.037881E0,1.0111365E0,2.3277538E0,1.7668718E0,2.9823036E0,2.4823265E0,2.1110675E0,1.2405087E1,3.5432234E0,1.03203745E1,8.71752E0,1.4366019E2,1.2401859E1,2.1700474E1],"tree_param":{"num_deleted":"0","num_feature":"43","num_nodes":"59","size_leaf_vector":"1"}},{"base_weights":[6.7569553E-3,-4.590021E-2,7.950434E-1,-1.0540184E-1,7.83757E-1,-4.944499E-3,8.664402E-1,-1.4498654E-1,1.0641923E0,3.9683664E-1,1.2448969E0,1.1445675E-2,9.4297886E-1,-2.3137933E-1,4.0830573E-1,9.058761E-3,1.1933197E0,-1.1951459E-1,1.0437316E0,4.4734988E-1,9.030241E-2,1.9485934E-2,1.085337E0,1.5567708E-1,-3.5908097E-1,1.460001E-1,1.5384963E0,1.5552635E-2,6.849803E-2,3.2394296E-1,-4.135656E-2,1.5711077E-2,7.405824E-2,5.1727958E-2,-1.7953342E-2,6.0554385E-2,1.8622255E-2,-1.4244499E-2,2.971094E-2,-1.9904654E-2,5.766027E-2,-7.2469264E-3,6.596659E-2,1.04284905E-1,1.3058768E-3,4.1722637E-2,-1.0578397E-2],"categories":[],"categories_nodes":[],"categories_segments":[],"categories_sizes":[],"default_left":[0,0,0,0,0,0,0,0,0,0,0,0,0,0,0,0,0,0,0,0,0,0,0,0,0,0,0,0,0,0,0,0,0,0,0,0,0,0,0,0,0,0,0,0,0,0,0],"id":25,"left_children":[1,3,5,7,9,-1,11,13,15,17,19,-1,21,23,25,-1,27,29,31,33,-1,-1,35,37,39,41,43,-1,-1,45,-1,-1,-1,-1,-1,-1,-1,-1,-1,-1,-1,-1,-1,-1,-1,-1,-1],"loss_changes":[1.1876563E1,1.3328779E1,1.2291183E0,1.178674E1,2.730939E0,0E0,5.986757E-1,1.1753309E1,7.3531914E-1,3.8979478E0,2.673277E0,0E0,7.2560024E-1,1.05149975E1,9.648089E0,0E0,6.805887E-1,2.5207605E0,1.1674757E0,2.522183E0,0E0,0E0,5.384884E-1,1.0446438E1,9.863945E0,9.795305E0,5.0503283E0,0E0,0E0,1.579533E0,0E0,0E0,0E0,0E0,0E0,0E0,0E0,0E0,0E0,0E0,0E0,0E0,0E0,0E0,0E0,0E0,0E0],"parents":[2147483647,0,0,1,1,2,2,3,3,4,4,6,6,7,7,8,8,9,9,10,10,12,12,13,13,14,14,16,16,17,17,18,18,19,19,22,22,23,23,24,24,25,25,26,26,29,29],"right_children":[2,4,6,8,10,-1,12,14,16,18,20,-1,22,24,26,-1,28,30,32,34,-1,-1,36,38,40,42,44,-1,-1,46,-1,-1,-1,-1,-1,-1,-1,-1,-1,-1,-1,-1,-1,-1,-1,-1,-1],"split_conditions":[5.48067E0,1.6088207E0,-1.3449748E0,9.604039E0,5.0932807E-1,-4.944499E-3,-1.4003619E0,8.651151E-1,-1.2148287E0,-1.1758913E0,1.6999654E0,1.1445675E-2,-1.6796024E0,-8.325886E-1,5.2891296E-1,9.058761E-3,-1.5225887E0,4.658594E-1,-4.770963E-1,1.2612172E0,9.030241E-2,1.9485934E-2,5.776046E-1,2.0728414E-1,1.596418E0,1.681845E0,1.0419098E0,1.5552635E-2,6.849803E-2,2.4758202E-1,-4.135656E-2,1.5711077E-2,7.405824E-2,5.1727958E-2,-1.7953342E-2,6.0554385E-2,1.8622255E-2,-1.4244499E-2,2.971094E-2,-1.9904654E-2,5.766027E-2,-7.2469264E-3,6.596659E-2,1.04284905E-1,1.3058768E-3,4.1722637E-2,-1.0578397E-2],"split_indices":[17,39,38,27,9,0,4,21,34,40,39,0,3,6,19,0,4,2,2,33,0,0,25,33,0,41,1,0,0,36,0,0,0,0,0,0,0,0,0,0,0,0,0,0,0,0,0],"split_type":[0,0,0,0,0,0,0,0,0,0,0,0,0,0,0,0,0,0,0,0,0,0,0,0,0,0,0,0,0,0,0,0,0,0,0,0,0,0,0,0,0,0,0,0,0,0,0],"sum_hessian":[2.8424152E2,2.6732605E2,1.6915482E1,2.5025139E2,1.7074654E1,1.2226057E0,1.5692876E1,2.429063E2,7.345083E0,1.029618E1,6.778474E0,2.109841E0,1.3583035E1,2.1060378E2,3.230252E1,1.2436498E0,6.1014333E0,6.179197E0,4.116983E0,3.541809E0,3.2366645E0,3.544663E0,1.0038372E1,5.219243E1,1.5841135E2,2.7134148E1,5.1683755E0,1.478369E0,4.6230645E0,4.1319456E0,2.047251E0,2.1873899E0,1.9295933E0,1.8857511E0,1.6560581E0,7.939114E0,2.099258E0,2.6210875E1,2.5981556E1,1.5514584E2,3.265499E0,2.2445137E1,4.68901E0,3.5168428E0,1.6515325E0,1.8295623E0,2.3023834E0],"tree_param":{"num_deleted":"0","num_feature":"43","num_nodes":"47","size_leaf_vector":"1"}},{"base_weights":[3.3601202E-2,-2.750461E-2,9.059067E-1,-8.753526E-2,8.4394723E-1,9.890705E-1,2.5601622E-1,5.4678184E-1,-1.6080491E-1,-1.3913519E-2,9.4052374E-1,1.044891E0,8.708348E-3,-3.643299E-3,2.2449017E-2,-1.6845301E-1,9.9017125E-1,4.9376902E-1,-2.4880897E-1,-1.2295305E-3,1.0239447E0,1.8734176E-2,1.1411339E0,4.8529696E-1,-4.3261188E-1,9.759337E-2,5.444074E-1,-9.602876E-2,1.4599609E0,-3.1561384E-1,5.4419035E-1,5.9808237E-3,1.154048E0,6.0344305E-2,1.9776493E-2,-1.8086493E-2,6.1196256E-2,-3.4724083E-2,2.3683427E-2,-1.1049608E-4,5.6373574E-2,-3.8848646E-2,1.3768655E-2,1.1787236E-1,2.000631E-2,2.4981258E-2,-1.9535923E-2,6.51807E-2,-5.9272074E-3,3.3812754E-2,7.285891E-2],"categories":[],"categories_nodes":[],"categories_segments":[],"categories_sizes":[],"default_left":[0,0,0,0,0,0,0,0,0,0,0,0,0,0,0,0,0,0,0,0,0,0,0,0,0,0,0,0,0,0,0,0,0,0,0,0,0,0,0,0,0,0,0,0,0,0,0,0,0,0,0],"id":26,"left_children":[1,3,5,7,9,11,13,15,17,-1,19,21,-1,-1,-1,23,25,27,29,-1,31,-1,33,35,37,-1,39,41,43,45,47,-1,49,-1,-1,-1,-1,-1,-1,-1,-1,-1,-1,-1,-1,-1,-1,-1,-1,-1,-1],"loss_changes":[1.489007E1,1.3758864E1,7.351122E-1,1.1504402E1,2.099059E0,5.3957653E-1,2.4999858E-1,8.305271E0,1.28523445E1,0E0,1.3002882E0,5.171194E-1,0E0,0E0,0E0,2.053542E0,5.791093E0,1.5254843E1,1.0526208E1,0E0,1.5798731E0,0E0,1.2651825E-1,2.6597018E0,2.2588959E0,0E0,3.9261236E0,4.616528E0,8.678419E0,1.1271475E1,7.982539E0,0E0,8.465862E-1,0E0,0E0,0E0,0E0,0E0,0E0,0E0,0E0,0E0,0E0,0E0,0E0,0E0,0E0,0E0,0E0,0E0,0E0],"parents":[2147483647,0,0,1,1,2,2,3,3,4,4,5,5,6,6,7,7,8,8,10,10,11,11,15,15,16,16,17,17,18,18,20,20,22,22,23,23,24,24,26,26,27,27,28,28,29,29,30,30,32,32],"right_children":[2,4,6,8,10,12,14,16,18,-1,20,22,-1,-1,-1,24,26,28,30,-1,32,-1,34,36,38,-1,40,42,44,46,48,-1,50,-1,-1,-1,-1,-1,-1,-1,-1,-1,-1,-1,-1,-1,-1,-1,-1,-1,-1],"split_conditions":[4.4513702E0,1.5812427E0,1.1293039E0,-1.8097353E0,-1.4362898E0,1.010851E0,-3.8869417E-1,-1.014928E0,-1.2047907E0,-1.3913519E-2,-1.4987081E0,5.6619973E0,8.708348E-3,-3.643299E-3,2.2449017E-2,-4.3289524E-1,1.9997202E-1,3.78086E-1,1.681845E0,-1.2295305E-3,-1.4682658E0,1.8734176E-2,1.1832426E0,-2.5236496E-1,9.688917E-1,9.759337E-2,4.1308162E-1,7.664986E-1,6.3219756E-1,-1.4445534E0,-5.6184335E-3,5.9808237E-3,-1.0415118E0,6.0344305E-2,1.9776493E-2,-1.8086493E-2,6.1196256E-2,-3.4724083E-2,2.3683427E-2,-1.1049608E-4,5.6373574E-2,-3.8848646E-2,1.3768655E-2,1.1787236E-1,2.000631E-2,2.4981258E-2,-1.9535923E-2,6.51807E-2,-5.9272074E-3,3.3812754E-2,7.285891E-2],"split_indices":[17,40,34,40,0,29,2,5,6,0,1,17,0,0,0,2,6,42,41,0,4,0,0,29,21,0,29,21,9,0,2,0,38,0,0,0,0,0,0,0,0,0,0,0,0,0,0,0,0,0,0],"split_type":[0,0,0,0,0,0,0,0,0,0,0,0,0,0,0,0,0,0,0,0,0,0,0,0,0,0,0,0,0,0,0,0,0,0,0,0,0,0,0,0,0,0,0,0,0,0,0,0,0,0,0],"sum_hessian":[2.7788055E2,2.6059415E2,1.7286394E1,2.4464139E2,1.59527645E1,1.4862588E1,2.4238064E0,2.4663092E1,2.1997829E2,1.1150106E0,1.4837753E1,1.3645641E1,1.2169466E0,1.1263964E0,1.29741E0,9.675519E0,1.4987574E1,2.5523537E1,1.9445476E2,1.2365919E0,1.3601162E1,2.3279045E0,1.1317737E1,2.543538E0,7.1319814E0,3.676705E0,1.1310868E1,1.6408077E1,9.11546E0,1.7990128E2,1.4553474E1,1.9520624E0,1.1649099E1,9.832019E0,1.4857183E0,1.4225208E0,1.1210172E0,5.714483E0,1.4174985E0,6.352069E0,4.9587994E0,5.405465E0,1.1002611E1,4.2728143E0,4.8426466E0,1.4698703E1,1.6520258E2,6.3313704E0,8.222103E0,5.775958E0,5.8731413E0],"tree_param":{"num_deleted":"0","num_feature":"43","num_nodes":"51","size_leaf_vector":"1"}},{"base_weights":[3.0679977E-2,-1.9843563E-2,8.08996E-1,-6.490288E-2,9.4944656E-1,5.1405195E-2,1.080481E0,3.1926897E-1,-1.5978792E-1,1.1108122E0,1.1209029E-2,-3.9072596E-2,5.1666886E-1,6.3671987E-3,1.228482E0,1.3521747E-1,1.4791816E0,-2.0430619E-1,9.687099E-1,2.4255559E-2,6.3183665E-2,-1.5562475E-2,4.9229465E-2,5.122402E-1,1.5492334E0,3.276419E-1,-5.951996E-1,1.760662E-1,1.758979E-1,6.3076335E-1,-2.7316293E-1,-1.2091342E-2,1.2650473E0,-1.1767691E-2,4.121346E-2,1.9102944E-2,8.9532614E-2,2.7052674E-2,-3.9197896E-2,4.3758016E-2,-4.319642E-2,6.763041E-2,-3.2691736E-2,-1.4936365E-2,7.6399185E-2,-1.6102295E-2,2.7387673E-2,8.087929E-3,8.146827E-2],"categories":[],"categories_nodes":[],"categories_segments":[],"categories_sizes":[],"default_left":[0,0,0,0,0,0,0,0,0,0,0,0,0,0,0,0,0,0,0,0,0,0,0,0,0,0,0,0,0,0,0,0,0,0,0,0,0,0,0,0,0,0,0,0,0,0,0,0,0],"id":27,"left_children":[1,3,5,7,9,11,13,15,17,19,-1,-1,21,-1,23,25,27,29,31,-1,-1,-1,-1,33,35,37,39,-1,41,43,45,-1,47,-1,-1,-1,-1,-1,-1,-1,-1,-1,-1,-1,-1,-1,-1,-1,-1],"loss_changes":[1.1105183E1,1.1669941E1,3.4848871E0,9.343205E0,1.1402378E0,2.5703263E0,1.6241646E0,1.0649988E1,1.0501439E1,2.9153347E-1,0E0,0E0,1.9293561E0,0E0,1.6899414E0,6.514713E0,1.763713E1,1.1564999E1,3.160595E0,0E0,0E0,0E0,0E0,1.3224914E0,1.2806034E0,9.019755E0,4.600919E0,0E0,6.000302E0,1.329526E1,7.5496044E0,0E0,2.3705263E0,0E0,0E0,0E0,0E0,0E0,0E0,0E0,0E0,0E0,0E0,0E0,0E0,0E0,0E0,0E0,0E0],"parents":[2147483647,0,0,1,1,2,2,3,3,4,4,5,5,6,6,7,7,8,8,9,9,12,12,14,14,15,15,16,16,17,17,18,18,23,23,24,24,25,25,26,26,28,28,29,29,30,30,32,32],"right_children":[2,4,6,8,10,12,14,16,18,20,-1,-1,22,-1,24,26,28,30,32,-1,-1,-1,-1,34,36,38,40,-1,42,44,46,-1,48,-1,-1,-1,-1,-1,-1,-1,-1,-1,-1,-1,-1,-1,-1,-1,-1],"split_conditions":[1.6088207E0,5.724662E0,-8.4509534E-1,-1.114013E0,6.585967E0,-4.9861073E-2,-1.1694891E0,1.3540075E0,1.563364E0,-4.363735E-1,1.1209029E-2,-3.9072596E-2,1.6999654E0,6.3671987E-3,-1.0571569E0,5.758229E-1,1.6715565E0,-1.3008429E0,-7.9656905E-1,2.4255559E-2,6.3183665E-2,-1.5562475E-2,4.9229465E-2,2.871226E-1,-1.0596632E0,-2.096086E-1,3.6339602E-1,1.760662E-1,-7.6507556E-1,3.4222093E-1,1.6510878E0,-1.2091342E-2,4.8794782E-1,-1.1767691E-2,4.121346E-2,1.9102944E-2,8.9532614E-2,2.7052674E-2,-3.9197896E-2,4.3758016E-2,-4.319642E-2,6.763041E-2,-3.2691736E-2,-1.4936365E-2,7.6399185E-2,-1.6102295E-2,2.7387673E-2,8.087929E-3,8.146827E-2],"split_indices":[39,17,5,0,17,33,4,31,0,6,0,0,39,0,1,36,7,6,6,0,0,0,0,5,7,41,19,0,34,1,40,0,25,0,0,0,0,0,0,0,0,0,0,0,0,0,0,0,0],"split_type":[0,0,0,0,0,0,0,0,0,0,0,0,0,0,0,0,0,0,0,0,0,0,0,0,0,0,0,0,0,0,0,0,0,0,0,0,0,0,0,0,0,0,0,0,0,0,0,0,0],"sum_hessian":[2.8099908E2,2.647853E2,1.6213747E1,2.5391466E2,1.087067E1,4.5911865E0,1.162256E1,4.9823555E1,2.040911E2,8.45738E0,2.41329E0,1.4019682E0,3.1892185E0,1.8122113E0,9.8103485E0,4.3964046E1,5.859509E0,1.9713332E2,6.9577827E0,2.479926E0,5.977454E0,1.2725128E0,1.9167056E0,3.8377059E0,5.972643E0,3.5233425E1,8.730623E0,1.6196928E0,4.239816E0,1.4395035E1,1.8273828E2,1.4044715E0,5.5533113E0,1.2024567E0,2.6352491E0,1.4662753E0,4.506367E0,2.9989187E1,5.2442374E0,1.0003735E0,7.7302494E0,1.4927104E0,2.7471058E0,7.3980017E0,6.9970336E0,1.7304189E2,9.696396E0,1.7370104E0,3.816301E0],"tree_param":{"num_deleted":"0","num_feature":"43","num_nodes":"49","size_leaf_vector":"1"}},{"base_weights":[7.649688E-2,4.532867E-1,-7.066956E-2,-3.0251736E-2,1.0516313E0,-1.6659033E-1,5.1246E-1,-1.1382305E-1,8.607563E-2,1.5994106E-1,1.2011988E0,1.432399E0,-2.0450948E-1,1.6085637E-1,1.1183641E0,-7.012795E-1,5.9668414E-2,-4.6413463E-1,5.173493E-2,1.4598624E0,8.3123165E-1,9.4644114E-2,9.603983E-3,-2.6917487E-1,7.0807976E-1,-1.5767941E-1,6.7984146E-1,-2.9184729E-2,1.695472E0,-8.634291E-1,8.987658E-3,1.0614438E0,-8.5539736E-2,-3.914964E-2,1.40001E-2,1.5289657E0,1.3040549E-2,9.449094E-1,-1.6533043E-2,-3.0346403E-1,8.015326E-2,8.5224015E-1,-1.5908634E-2,-4.979944E-1,5.2667713E-1,1.1354297E0,-1.9061606E-1,-3.339886E-2,2.8240828E-2,7.938867E-1,1.04340315E-1,-3.1055706E-3,-4.811549E-2,8.580776E-2,-2.8627858E-2,-1.9661034E-2,1.8581565E-2,8.397611E-2,3.651493E-2,2.0910626E-2,5.5856496E-2,-1.8536463E-2,2.6638389E-2,-2.3532568E-3,4.8703328E-2,-8.216475E-4,-3.9178263E-2,6.447738E-2,-3.4569126E-2,7.64925E-2,5.3542005E-3,-3.2287195E-2,1.8098736E-2,6.0596466E-2,1.0465005E-3],"categories":[],"categories_nodes":[],"categories_segments":[],"categories_sizes":[],"default_left":[0,0,0,0,0,0,0,0,0,0,0,0,0,0,0,0,0,0,0,0,0,0,0,0,0,0,0,0,0,0,0,0,0,0,0,0,0,0,0,0,0,0,0,0,0,0,0,0,0,0,0,0,0,0,0,0,0,0,0,0,0,0,0,0,0,0,0,0,0,0,0,0,0,0,0],"id":28,"left_children":[1,3,5,7,9,11,13,15,-1,17,19,21,23,25,27,29,31,33,-1,35,37,-1,-1,39,41,43,45,47,49,51,-1,53,55,-1,-1,57,-1,59,-1,61,-1,63,-1,65,67,69,71,-1,-1,73,-1,-1,-1,-1,-1,-1,-1,-1,-1,-1,-1,-1,-1,-1,-1,-1,-1,-1,-1,-1,-1,-1,-1,-1,-1],"loss_changes":[1.5466729E1,2.26905E1,1.1329994E1,6.679231E0,4.479862E0,1.0805992E1,5.9220862E0,4.445446E0,0E0,3.8569798E0,1.6426239E0,2.0018387E0,1.0237475E1,3.2966056E0,6.903736E0,1.5737019E0,5.077029E0,1.2395971E0,0E0,9.4705963E-1,2.2411995E0,0E0,0E0,1.0739319E1,1.9785743E0,3.235656E0,3.2010043E0,2.0644224E0,7.789974E-1,6.183424E-1,0E0,5.7048316E0,4.4874845E0,0E0,0E0,5.9537125E-1,0E0,7.6285934E-1,0E0,9.066698E0,0E0,1.184298E0,0E0,1.2304068E0,5.283225E0,1.8982596E0,1.099389E0,0E0,0E0,1.1713514E0,0E0,0E0,0E0,0E0,0E0,0E0,0E0,0E0,0E0,0E0,0E0,0E0,0E0,0E0,0E0,0E0,0E0,0E0,0E0,0E0,0E0,0E0,0E0,0E0,0E0],"parents":[2147483647,0,0,1,1,2,2,3,3,4,4,5,5,6,6,7,7,9,9,10,10,11,11,12,12,13,13,14,14,15,15,16,16,17,17,19,19,20,20,23,23,24,24,25,25,26,26,27,27,28,28,29,29,31,31,32,32,35,35,37,37,39,39,41,41,43,43,44,44,45,45,46,46,49,49],"right_children":[2,4,6,8,10,12,14,16,-1,18,20,22,24,26,28,30,32,34,-1,36,38,-1,-1,40,42,44,46,48,50,52,-1,54,56,-1,-1,58,-1,60,-1,62,-1,64,-1,66,68,70,72,-1,-1,74,-1,-1,-1,-1,-1,-1,-1,-1,-1,-1,-1,-1,-1,-1,-1,-1,-1,-1,-1,-1,-1,-1,-1,-1,-1],"split_conditions":[3.2637247E-1,-6.634539E-1,8.6568844E-1,4.4128996E-1,-1.6398152E0,-4.582513E-2,4.6387333E-1,-7.544793E-1,8.607563E-2,4.4513702E0,4.4820356E0,5.552159E-1,1.736648E0,1.1256531E0,-6.003691E-1,1.1832426E0,-1.6752836E0,1.0298227E0,5.173493E-2,1.4507244E0,-1.0434979E0,9.4644114E-2,9.603983E-3,1.585693E0,3.6679548E-1,5.20746E-1,1.0097089E0,-2.6589134E-1,3.025121E-1,-9.3221575E-1,8.987658E-3,9.0005237E-1,5.6499696E-1,-3.914964E-2,1.40001E-2,1.0552067E0,1.3040549E-2,1.5915795E-1,-1.6533043E-2,1.4719163E0,8.015326E-2,-1.1847607E0,-1.5908634E-2,-5.160452E-1,1.0079443E0,6.3879156E-1,1.3054197E0,-3.339886E-2,2.8240828E-2,2.221266E-1,1.04340315E-1,-3.1055706E-3,-4.811549E-2,8.580776E-2,-2.8627858E-2,-1.9661034E-2,1.8581565E-2,8.397611E-2,3.651493E-2,2.0910626E-2,5.5856496E-2,-1.8536463E-2,2.6638389E-2,-2.3532568E-3,4.8703328E-2,-8.216475E-4,-3.9178263E-2,6.447738E-2,-3.4569126E-2,7.64925E-2,5.3542005E-3,-3.2287195E-2,1.8098736E-2,6.0596466E-2,1.0465005E-3],"split_indices":[19,36,21,20,33,36,25,34,0,17,17,0,40,38,33,0,40,38,0,34,19,0,0,29,37,19,0,37,36,0,0,38,40,0,0,2,0,36,0,37,0,5,0,41,1,36,37,0,0,36,0,0,0,0,0,0,0,0,0,0,0,0,0,0,0,0,0,0,0,0,0,0,0,0,0],"split_type":[0,0,0,0,0,0,0,0,0,0,0,0,0,0,0,0,0,0,0,0,0,0,0,0,0,0,0,0,0,0,0,0,0,0,0,0,0,0,0,0,0,0,0,0,0,0,0,0,0,0,0,0,0,0,0,0,0,0,0,0,0,0,0,0,0,0,0,0,0,0,0,0,0,0,0],"sum_hessian":[2.7734927E2,7.7316345E1,2.0003293E2,4.3285557E1,3.403079E1,1.7239024E2,2.7642681E1,4.2207016E1,1.0785438E0,5.1854696E0,2.884532E1,3.1415384E0,1.692487E2,1.829288E1,9.349802E0,8.929348E0,3.3277668E1,3.300335E0,1.8851347E0,1.52425375E1,1.3602782E1,1.9073045E0,1.2342339E0,1.5870782E2,1.0540877E1,1.1766916E1,6.525964E0,3.4463484E0,5.9034534E0,7.558267E0,1.3710806E0,3.4141316E0,2.9863535E1,2.273806E0,1.0265287E0,1.4151799E1,1.0907379E0,1.256062E1,1.0421616E0,1.5667628E2,2.031535E0,9.391228E0,1.1496495E0,8.0407505E0,3.7261655E0,4.0840235E0,2.4419403E0,1.6005592E0,1.8457892E0,2.7035286E0,3.1999247E0,1.0090641E0,6.549203E0,2.401586E0,1.0125457E0,1.7933788E1,1.1929747E1,1.0979204E1,3.1725945E0,3.93985E0,8.62077E0,1.45527E2,1.1149305E1,1.1936371E0,8.197591E0,3.3869095E0,4.653841E0,2.2551045E0,1.4710609E0,2.599362E0,1.4846615E0,1.2466185E0,1.1953219E0,1.3860108E0,1.3175179E0],"tree_param":{"num_deleted":"0","num_feature":"43","num_nodes":"75","size_leaf_vector":"1"}},{"base_weights":[6.8562017E-3,-4.8419908E-2,8.500075E-1,-9.757296E-2,8.5205364E-1,9.5785856E-1,1.6325805E-1,-1.4311874E-1,7.5471085E-1,1.9816029E-1,1.1529573E0,4.3893158E-1,1.0865096E0,3.6412656E-2,-1.8203257E-2,8.253387E-1,-1.8109791E-1,7.048722E-3,8.628872E-1,6.855783E-1,-4.02346E-1,-2.5275054E-3,1.351306E0,3.6951795E-4,2.9421085E-2,5.9460968E-2,2.093397E-2,1.3598444E-1,8.330255E-2,-3.325383E-1,1.1675469E-1,5.647219E-2,3.915438E-1,4.407253E-2,6.758225E-3,5.9000677E-3,-3.6476158E-2,7.907683E-2,1.5787289E-2,-3.7377313E-2,3.3292215E-2,-4.4438695E-3,-2.7057856E-2,-1.2477022E-2,3.020443E-2,-3.9145947E-3,4.0769894E-2],"categories":[],"categories_nodes":[],"categories_segments":[],"categories_sizes":[],"default_left":[0,0,0,0,0,0,0,0,0,0,0,0,0,0,0,0,0,0,0,0,0,0,0,0,0,0,0,0,0,0,0,0,0,0,0,0,0,0,0,0,0,0,0,0,0,0,0],"id":29,"left_children":[1,3,5,7,9,11,13,15,17,19,21,23,25,-1,-1,27,29,-1,31,33,35,-1,37,-1,-1,-1,-1,39,-1,41,43,-1,45,-1,-1,-1,-1,-1,-1,-1,-1,-1,-1,-1,-1,-1,-1],"loss_changes":[1.3016835E1,1.1689625E1,1.1163292E0,9.795119E0,2.4623623E0,5.0083923E-1,1.3191493E0,8.893595E0,7.2942305E-1,1.8907857E0,2.254531E0,2.91587E-1,2.6060867E-1,0E0,0E0,5.076961E0,1.0394579E1,0E0,9.024606E-1,2.4906814E-1,6.1420983E-1,0E0,1.3837948E0,0E0,0E0,0E0,0E0,3.3614352E0,0E0,7.701708E0,1.4096515E1,0E0,1.1385754E0,0E0,0E0,0E0,0E0,0E0,0E0,0E0,0E0,0E0,0E0,0E0,0E0,0E0,0E0],"parents":[2147483647,0,0,1,1,2,2,3,3,4,4,5,5,6,6,7,7,8,8,9,9,10,10,11,11,12,12,15,15,16,16,18,18,19,19,20,20,22,22,27,27,29,29,30,30,32,32],"right_children":[2,4,6,8,10,12,14,16,18,20,22,24,26,-1,-1,28,30,-1,32,34,36,-1,38,-1,-1,-1,-1,40,-1,42,44,-1,46,-1,-1,-1,-1,-1,-1,-1,-1,-1,-1,-1,-1,-1,-1],"split_conditions":[5.5286684E0,1.9629214E0,6.585967E0,1.8815764E0,-7.4848574E-1,-1.6977757E0,-7.008375E-1,-2.2288058E0,-1.0715389E0,7.70186E-1,-1.6617424E0,-6.765039E-1,6.5513015E0,3.6412656E-2,-1.8203257E-2,-5.254277E-2,6.6196805E-1,7.048722E-3,7.400098E-1,4.6031052E-1,5.00135E-1,-2.5275054E-3,1.065788E0,3.6951795E-4,2.9421085E-2,5.9460968E-2,2.093397E-2,-3.9769727E-1,8.330255E-2,-1.1670028E-1,-5.604257E-1,5.647219E-2,6.6828954E-1,4.407253E-2,6.758225E-3,5.9000677E-3,-3.6476158E-2,7.907683E-2,1.5787289E-2,-3.7377313E-2,3.3292215E-2,-4.4438695E-3,-2.7057856E-2,-1.2477022E-2,3.020443E-2,-3.9145947E-3,4.0769894E-2],"split_indices":[17,41,17,40,4,3,0,40,5,1,1,6,17,0,0,5,29,0,5,19,6,0,21,0,0,0,0,41,0,3,41,0,1,0,0,0,0,0,0,0,0,0,0,0,0,0,0],"split_type":[0,0,0,0,0,0,0,0,0,0,0,0,0,0,0,0,0,0,0,0,0,0,0,0,0,0,0,0,0,0,0,0,0,0,0,0,0,0,0,0,0,0,0,0,0,0,0],"sum_hessian":[2.7741144E2,2.6122818E2,1.6183271E1,2.485524E2,1.2675784E1,1.3645528E1,2.5377438E0,2.367335E2,1.1818887E1,4.517457E0,8.158327E0,3.587357E0,1.0058171E1,1.0411628E0,1.4965811E0,8.151118E0,2.2858238E2,2.1161492E0,9.702738E0,2.4153237E0,2.1021333E0,1.2597528E0,6.898575E0,1.1929734E0,2.3943837E0,8.040803E0,2.0173678E0,5.117059E0,3.0340588E0,1.5145834E2,7.712405E1,5.305897E0,4.3968406E0,1.3378122E0,1.0775115E0,1.0583124E0,1.0438207E0,5.2124834E0,1.6860914E0,1.7642952E0,3.3527641E0,7.051952E1,8.093881E1,4.4308426E1,3.2815624E1,2.4719775E0,1.9248632E0],"tree_param":{"num_deleted":"0","num_feature":"43","num_nodes":"47","size_leaf_vector":"1"}},{"base_weights":[5.9382223E-2,2.473606E-2,1.1095825E0,-4.3488503E-3,1.1026884E0,6.1371993E-2,1.0381719E-2,-5.4228608E-2,6.49024E-1,3.70099E-1,8.525459E-2,6.0296595E-1,-1.08691856E-1,-5.3598132E-2,8.06303E-1,8.874453E-1,-3.0414307E-2,-2.3863558E-2,1.6207224E0,8.091016E-1,-1.44881E-1,-3.0988706E-2,3.000026E-1,2.871983E-1,1.1641939E0,5.6713935E-2,8.661278E-3,2.676096E-2,-3.1218633E-2,2.4193656E-2,1.7076585E-1,5.1223086E-3,7.688849E-2,2.1657651E-2,-9.996023E-3,3.7606765E-2,-1.77474E-2,5.2629855E-2,-3.7676773E-3,2.805434E-2,8.1227E-2],"categories":[],"categories_nodes":[],"categories_segments":[],"categories_sizes":[],"default_left":[0,0,0,0,0,0,0,0,0,0,0,0,0,0,0,0,0,0,0,0,0,0,0,0,0,0,0,0,0,0,0,0,0,0,0,0,0,0,0,0,0],"id":30,"left_children":[1,3,5,7,9,-1,-1,11,13,15,-1,17,19,21,23,25,-1,27,29,31,33,-1,35,37,39,-1,-1,-1,-1,-1,-1,-1,-1,-1,-1,-1,-1,-1,-1,-1,-1],"loss_changes":[1.0094884E1,8.480399E0,6.871662E-1,8.646449E0,2.5050983E0,0E0,0E0,8.885318E0,2.122768E0,2.8094199E0,0E0,1.2166674E1,7.703354E0,1.0627264E0,2.5338678E0,3.9227962E-1,0E0,4.614872E0,1.3159866E1,4.382075E0,7.104415E0,0E0,1.2648244E0,2.1959982E0,1.534708E0,0E0,0E0,0E0,0E0,0E0,0E0,0E0,0E0,0E0,0E0,0E0,0E0,0E0,0E0,0E0,0E0],"parents":[2147483647,0,0,1,1,2,2,3,3,4,4,7,7,8,8,9,9,11,11,12,12,13,13,14,14,15,15,17,17,18,18,19,19,20,20,22,22,23,23,24,24],"right_children":[2,4,6,8,10,-1,-1,12,14,16,-1,18,20,22,24,26,-1,28,30,32,34,-1,36,38,40,-1,-1,-1,-1,-1,-1,-1,-1,-1,-1,-1,-1,-1,-1,-1,-1],"split_conditions":[6.1113157E0,1.6294721E0,1.3154588E0,1.583963E0,8.092131E-1,6.1371993E-2,1.0381719E-2,-1.5705627E0,-7.3459184E-1,1.0477774E0,8.525459E-2,6.21324E-1,-2.1694374E0,1.9629214E0,8.031212E-1,-1.1707505E0,-3.0414307E-2,2.931602E-1,1.0056806E0,-5.254277E-2,-1.3248559E0,-3.0988706E-2,-1.09153666E-1,-2.4997185E-3,-1.1020078E-2,5.6713935E-2,8.661278E-3,2.676096E-2,-3.1218633E-2,2.4193656E-2,1.7076585E-1,5.1223086E-3,7.688849E-2,2.1657651E-2,-9.996023E-3,3.7606765E-2,-1.77474E-2,5.2629855E-2,-3.7676773E-3,2.805434E-2,8.1227E-2],"split_indices":[17,0,0,39,38,0,0,3,3,7,0,0,40,41,0,3,0,19,34,5,6,0,5,41,1,0,0,0,0,0,0,0,0,0,0,0,0,0,0,0,0],"split_type":[0,0,0,0,0,0,0,0,0,0,0,0,0,0,0,0,0,0,0,0,0,0,0,0,0,0,0,0,0,0,0,0,0,0,0,0,0,0,0,0,0],"sum_hessian":[2.771975E2,2.6933566E2,7.8618436E0,2.6322928E2,6.106388E0,6.6340923E0,1.2277513E0,2.454111E2,1.781816E1,3.4839218E0,2.6224663E0,1.80106E1,2.2740051E2,3.3795774E0,1.4438581E1,2.3396962E0,1.1442256E0,1.175025E1,6.260349E0,7.8161983E0,2.195843E2,1.0098622E0,2.3697155E0,6.62777E0,7.810811E0,1.3016952E0,1.038001E0,6.1413174E0,5.6089325E0,4.6097608E0,1.650588E0,4.5470786E0,3.26912E0,1.8493412E1,2.010909E2,1.3141395E0,1.0555758E0,1.5185639E0,5.109206E0,4.3416195E0,3.4691918E0],"tree_param":{"num_deleted":"0","num_feature":"43","num_nodes":"41","size_leaf_vector":"1"}},{"base_weights":[7.903105E-3,3.2121626E-1,-1.1984474E-1,-1.3261344E-1,7.9080594E-1,9.63696E-2,-1.5543017E-1,-7.8383213E-1,5.5895943E-2,4.6555617E-1,1.4356306E0,-2.1333994E-1,6.460662E-1,-4.7997326E-2,-4.8440506E-4,6.3588965E-1,-2.387032E-1,5.399575E-1,-3.7953105E-2,-7.8149856E-4,1.6169258E0,-3.1917536E-1,3.4728557E-1,8.652731E-1,-2.1629004E-2,1.3009695E0,-5.512286E-1,-7.026883E-1,2.0561205E-1,-1.4541903E-1,6.995931E-1,1.7760273E0,1.2782589E-2,-3.5720745E-1,1.3276107E0,5.2662574E-2,1.0693085E0,-9.948626E-3,9.915274E-1,1.0219407E-1,-5.5285236E-3,-4.0811174E-2,8.022477E-3,-4.5426168E-2,1.45011945E-2,2.3631228E-2,-3.8008258E-2,1.4226331E-2,-3.152346E-2,1.8683022E-2,5.163875E-2,1.06024384E-1,5.398191E-2,-3.1238142E-2,-6.3098953E-3,8.200607E-2,2.2125741E-2,-3.8912546E-2,1.7760834E-2,1.3653332E-2,9.368845E-2,5.714978E-2,1.7071137E-2],"categories":[],"categories_nodes":[],"categories_segments":[],"categories_sizes":[],"default_left":[0,0,0,0,0,0,0,0,0,0,0,0,0,0,0,0,0,0,0,0,0,0,0,0,0,0,0,0,0,0,0,0,0,0,0,0,0,0,0,0,0,0,0,0,0,0,0,0,0,0,0,0,0,0,0,0,0,0,0,0,0,0,0],"id":31,"left_children":[1,3,5,7,9,-1,11,13,15,17,19,21,23,-1,-1,25,27,29,-1,-1,31,33,35,37,-1,39,41,43,45,47,49,51,-1,53,55,57,59,-1,61,-1,-1,-1,-1,-1,-1,-1,-1,-1,-1,-1,-1,-1,-1,-1,-1,-1,-1,-1,-1,-1,-1,-1,-1],"loss_changes":[1.1178685E1,1.7342916E1,1.4756542E1,5.198532E0,7.6991253E0,0E0,9.23407E0,1.2849321E0,5.8752947E0,2.9610248E0,3.418499E0,1.1000098E1,3.5554433E0,0E0,0E0,9.841036E0,4.8738894E0,3.053688E0,0E0,0E0,2.0310345E0,1.017582E1,6.245227E0,1.7444916E0,0E0,8.305022E0,1.0459926E0,2.6028132E0,3.580774E0,1.4150033E0,2.0092163E0,1.346798E-1,0E0,9.327871E0,3.0004597E-1,5.829814E0,4.954056E0,0E0,6.3983727E-1,0E0,0E0,0E0,0E0,0E0,0E0,0E0,0E0,0E0,0E0,0E0,0E0,0E0,0E0,0E0,0E0,0E0,0E0,0E0,0E0,0E0,0E0,0E0,0E0],"parents":[2147483647,0,0,1,1,2,2,3,3,4,4,6,6,7,7,8,8,9,9,10,10,11,11,12,12,15,15,16,16,17,17,20,20,21,21,22,22,23,23,25,25,26,26,27,27,28,28,29,29,30,30,31,31,33,33,34,34,35,35,36,36,38,38],"right_children":[2,4,6,8,10,-1,12,14,16,18,20,22,24,-1,-1,26,28,30,-1,-1,32,34,36,38,-1,40,42,44,46,48,50,52,-1,54,56,58,60,-1,62,-1,-1,-1,-1,-1,-1,-1,-1,-1,-1,-1,-1,-1,-1,-1,-1,-1,-1,-1,-1,-1,-1,-1,-1],"split_conditions":[3.307282E-1,-1.7352608E0,-1.9362246E0,-7.544793E-1,4.0285936E-1,9.63696E-2,1.5218744E0,1.1832426E0,1.0185591E0,1.4507244E0,-5.6805396E-1,8.6568844E-1,5.758229E-1,-4.7997326E-2,-4.8440506E-4,2.871226E-1,6.1394477E-1,-2.1541057E0,-3.7953105E-2,-7.8149856E-4,8.4275436E-1,1.5047566E0,6.6196805E-1,4.125918E-2,-2.1629004E-2,7.737905E-1,7.370131E-1,1.0592899E0,5.468888E-1,1.3195756E-1,-8.436315E-1,-1.5442873E-3,1.2782589E-2,1.2485259E-1,1.879655E-1,8.870753E-1,5.114901E-1,-9.948626E-3,5.2891296E-1,1.0219407E-1,-5.5285236E-3,-4.0811174E-2,8.022477E-3,-4.5426168E-2,1.45011945E-2,2.3631228E-2,-3.8008258E-2,1.4226331E-2,-3.152346E-2,1.8683022E-2,5.163875E-2,1.06024384E-1,5.398191E-2,-3.1238142E-2,-6.3098953E-3,8.200607E-2,2.2125741E-2,-3.8912546E-2,1.7760834E-2,1.3653332E-2,9.368845E-2,5.714978E-2,1.7071137E-2],"split_indices":[19,36,36,34,33,0,40,0,33,34,1,21,36,0,0,5,1,33,0,0,21,29,29,36,0,3,0,0,25,40,3,4,0,35,6,38,19,0,19,0,0,0,0,0,0,0,0,0,0,0,0,0,0,0,0,0,0,0,0,0,0,0,0],"split_type":[0,0,0,0,0,0,0,0,0,0,0,0,0,0,0,0,0,0,0,0,0,0,0,0,0,0,0,0,0,0,0,0,0,0,0,0,0,0,0,0,0,0,0,0,0,0,0,0,0,0,0,0,0,0,0,0,0,0,0,0,0,0,0],"sum_hessian":[2.773302E2,7.9886604E1,1.9744357E2,4.0989937E1,3.889667E1,2.4650717E0,1.9497852E2,8.492826E0,3.249711E1,2.6999903E1,1.1896769E1,1.8252455E2,1.2453955E1,6.7232957E0,1.7695307E0,1.0556147E1,2.1940962E1,2.5980541E1,1.0193601E0,1.422612E0,1.0474156E1,1.5390155E2,2.8623005E1,1.0514891E1,1.9390637E0,6.70422E0,3.8519266E0,1.0448451E1,1.1492511E1,4.924941E0,2.1055601E1,9.10528E0,1.3688765E0,1.5119289E2,2.708669E0,2.1090088E1,7.5329175E0,1.054037E0,9.460854E0,4.0989227E0,2.6052969E0,2.6997638E0,1.1521628E0,8.724307E0,1.7241448E0,9.403354E0,2.0891573E0,2.8299222E0,2.0950189E0,1.1716E1,9.3396015E0,4.7237554E0,4.3815246E0,6.926529E1,8.19276E1,1.3714074E0,1.3372616E0,5.2098494E0,1.5880238E1,4.4589562E0,3.0739613E0,7.0581903E0,2.4026635E0],"tree_param":{"num_deleted":"0","num_feature":"43","num_nodes":"63","size_leaf_vector":"1"}},{"base_weights":[3.733062E-2,3.8012472E-1,-9.6316434E-2,-6.7542404E-2,8.877578E-1,9.729156E-2,-1.3156904E-1,-2.7153894E-1,7.0034635E-1,6.2668824E-1,1.4787555E0,-2.0712157E-1,4.571696E-1,7.619199E-1,-3.6845782E-1,2.6648757E-1,7.747066E-2,8.4275323E-1,1.3044827E-1,3.6779574E-1,1.7927907E0,-2.6315415E-1,6.6932315E-1,-3.0182222E-1,9.2516744E-1,6.950868E-2,-7.989022E-3,-4.5959997E-1,4.1862816E-2,-3.283161E-1,1.010639E0,9.6659213E-1,-1.3081853E-2,-2.6447636E-1,3.0766442E-1,-1.3906425E-3,3.2555066E-2,9.6799694E-2,2.379647E-2,-3.283834E-1,4.7869492E-1,1.0073837E-3,7.487926E-1,4.1633133E-2,-5.4638565E-1,2.1940391E-1,1.6246275E0,-2.7066607E-2,2.485337E-2,1.3119772E-2,-3.8217444E-2,6.965958E-2,6.995644E-3,5.2918624E-2,8.230678E-4,5.7075773E-3,-2.4293814E-2,2.4128458E-2,7.88876E-3,-2.0344634E-2,2.0818604E-2,-2.1456617E-3,5.1555067E-2,4.245852E-2,6.004322E-3,2.7044048E-3,-4.5847137E-2,-2.2062339E-2,6.593423E-2,7.7289226E-3,1.05016224E-1],"categories":[],"categories_nodes":[],"categories_segments":[],"categories_sizes":[],"default_left":[0,0,0,0,0,0,0,0,0,0,0,0,0,0,0,0,0,0,0,0,0,0,0,0,0,0,0,0,0,0,0,0,0,0,0,0,0,0,0,0,0,0,0,0,0,0,0,0,0,0,0,0,0,0,0,0,0,0,0,0,0,0,0,0,0,0,0,0,0,0,0],"id":32,"left_children":[1,3,5,7,9,-1,11,13,15,17,19,21,23,25,27,29,-1,31,33,35,37,39,41,43,45,-1,-1,47,-1,49,51,53,-1,55,57,-1,-1,-1,-1,59,61,-1,63,-1,65,67,69,-1,-1,-1,-1,-1,-1,-1,-1,-1,-1,-1,-1,-1,-1,-1,-1,-1,-1,-1,-1,-1,-1,-1,-1],"loss_changes":[1.2552852E1,1.7521418E1,1.4464333E1,6.7317147E0,4.6398144E0,0E0,8.766196E0,3.6577032E0,2.918942E0,2.7592058E0,2.9405937E0,8.694941E0,8.265783E0,2.0847945E0,3.8462124E0,3.5159068E0,0E0,2.777505E0,7.3225725E-1,4.1397902E-1,5.469818E-1,8.081576E0,5.372205E-1,3.0435803E0,6.630865E0,0E0,0E0,2.6093488E0,0E0,1.424747E0,9.512181E-1,1.4485588E0,0E0,3.420201E-1,1.042763E-1,0E0,0E0,0E0,0E0,9.005306E0,3.9751043E0,0E0,4.982152E-1,0E0,1.8917861E0,6.5381536E0,